svm_type c_svc
kernel_type linear
nr_class 5
total_sv 905
rho -0.326333 -0.194271 -0.391494 -0.372641 0.349498 0.0941386 0.0728544 -0.207407 -0.325053 -0.0698466
label 5 2 4 3 1
nr_sv 214 135 270 176 110
SV
0 0.08273741938986005 0.004934614382680374 0.007491735699617785 6:1 8:2 9:1 35:1 96:2 125:1 137:1 278:1 323:1 411:1 452:1 544:1 547:1 672:3 784:1 800:1 879:1 940:1 973:1 979:1 1337:1 1349:1 1447:1 1783:1 
0 0.1434094740435614 0.006504698249777389 0 0:1 11:1 18:1 20:1 33:1 48:1 49:1 75:1 89:1 202:1 246:1 258:1 467:1 498:1 596:1 645:1 784:2 1009:1 1092:1 1336:1 1447:1 1564:1 1669:1 
0 0.02360262110136 0 0 5:1 7:1 17:1 22:2 37:1 55:1 125:1 137:1 151:1 180:2 214:1 285:1 347:2 367:2 372:1 386:1 415:1 454:1 509:1 573:1 611:2 661:1 686:1 847:1 1158:1 1744:1 1843:1 1986:2 1999:1 
0 0 0 0.007935851598144392 11:1 26:1 85:1 100:1 288:1 443:1 
0.03505398607731183 0.08227115755422905 0.03051948793702657 0.001807126465410057 0:3 1:3 2:3 3:1 4:1 7:1 16:1 19:1 21:1 26:1 33:1 34:1 35:1 37:1 47:1 48:2 55:1 59:1 64:1 66:1 69:1 72:1 75:1 80:1 88:1 91:1 96:1 101:1 126:1 128:1 133:1 146:1 148:1 158:1 208:1 210:2 213:1 219:1 236:1 281:1 284:1 301:1 311:1 313:1 320:1 371:1 380:1 415:1 431:1 443:1 484:1 511:1 533:1 546:1 620:1 755:1 775:1 777:1 844:1 912:1 973:1 1002:1 1230:1 1490:1 1546:1 1637:1 1952:1 
0 0.07811404405330157 0.02612697250515464 0 7:1 9:2 11:1 17:1 25:1 26:1 27:1 30:1 49:1 69:1 85:1 100:1 119:1 134:1 183:1 249:1 305:1 333:1 357:1 375:1 389:1 441:1 467:1 849:2 1027:1 1287:1 1528:1 1577:1 
0.3422864752666486 1 0.8867792385832239 0.1561136627600836 0:1 85:1 100:1 
0 0.03353373928369913 0 0 0:6 1:1 2:1 3:1 4:4 6:3 8:2 11:1 15:1 17:2 19:2 22:1 23:1 28:2 33:1 39:2 43:1 44:2 47:3 53:2 54:2 55:1 59:3 61:2 67:2 68:1 69:1 71:1 76:1 78:2 80:1 83:1 84:2 85:7 90:1 91:1 94:1 98:3 100:2 102:1 109:4 110:1 113:1 115:1 123:1 130:1 131:2 132:1 134:2 135:3 138:1 143:2 150:2 156:1 158:2 160:2 164:1 166:1 168:1 169:1 175:1 183:1 208:1 213:1 214:2 227:4 235:1 246:1 249:1 256:1 270:2 273:1 274:1 275:1 286:1 288:1 289:1 296:1 300:1 346:1 354:1 357:2 368:1 369:1 380:1 384:1 389:1 403:2 410:1 424:1 431:1 440:1 485:1 493:1 503:1 504:1 510:1 511:1 517:1 518:1 525:1 529:1 566:1 578:2 582:1 590:1 595:2 600:1 604:2 605:1 623:1 647:1 668:1 686:1 719:1 749:1 765:4 781:1 793:1 800:1 801:1 819:2 821:1 834:1 863:1 876:1 890:1 895:1 957:5 969:1 1020:1 1116:1 1148:1 1158:1 1160:1 1182:1 1191:1 1204:2 1207:1 1218:1 1228:1 1230:1 1283:2 1317:1 1341:1 1416:1 1441:1 1494:2 1501:1 1601:1 1608:1 1676:1 1797:2 1845:1 1897:1 1922:1 1931:1 
0.09174632497175421 0.06563859352635276 0.03423692658698708 0.01701537902250441 29:1 72:1 88:1 90:1 121:1 213:1 256:1 421:1 574:1 667:1 707:1 1174:1 1527:1 
0 0.01884505257448907 0 0 2:1 3:1 5:1 18:1 33:1 75:1 80:2 84:1 97:1 121:1 176:1 252:1 314:1 353:1 368:1 462:1 538:1 687:1 728:1 1287:1 
1 1 1 0.4294396322308388 5:1 
0 0.1142867796244966 0 0 0:1 1:1 2:1 5:3 23:3 92:1 103:1 150:1 167:1 185:1 192:1 233:1 359:1 546:1 689:1 1085:1 1694:1 1704:1 
0 0.002891072021275268 0.004326705648822324 0 0:3 2:1 3:1 4:1 6:2 7:1 11:3 12:2 26:1 35:1 43:1 68:1 71:1 96:1 99:1 107:1 109:1 110:1 116:1 120:2 123:1 167:1 223:1 226:1 244:1 294:1 328:1 350:1 356:1 368:1 520:1 550:1 575:1 595:1 596:1 635:1 688:1 710:1 768:1 775:1 793:1 861:1 891:1 912:1 1078:1 1232:1 1449:1 1455:1 1520:1 
0.02046133860936093 0 0.00374033857083463 0 0:1 2:3 3:1 4:1 5:1 11:2 12:1 14:1 24:1 33:1 34:1 47:1 68:1 87:1 88:1 91:1 120:2 126:1 132:2 143:1 148:1 167:1 212:1 213:1 268:2 273:1 280:1 319:1 356:3 363:1 415:1 441:1 444:1 472:2 491:1 537:1 596:1 647:1 855:1 884:1 1126:1 1204:1 1312:1 1353:1 1479:1 1724:1 
0 0.04415201402443645 0.04661113710056103 0.01562981082292366 0:1 2:1 5:1 16:1 20:1 50:1 79:1 193:1 304:1 380:1 882:1 
0.001096570315106558 0.08182576032540878 0.07152739511140503 0 0:2 1:1 2:1 3:1 4:1 10:1 18:1 20:1 68:1 81:1 84:1 100:1 108:1 117:1 120:1 123:1 132:1 147:1 148:1 190:1 200:1 226:2 314:1 328:1 350:1 356:1 360:2 362:2 363:1 368:1 377:1 437:1 491:1 519:1 520:1 546:1 647:1 658:1 675:1 925:2 1082:1 1356:1 1724:1 
0 0.1025000651188672 0.04008993543623678 0 2:1 5:1 36:1 43:1 49:1 120:1 124:1 125:1 226:1 350:1 520:1 627:1 748:1 
0.01751032022935329 0.01543728806267736 0 0 11:1 20:1 33:1 49:1 120:1 132:1 185:1 289:1 290:1 360:2 463:2 1186:1 
0.01486381764025429 0.005671225284436348 0.02230123935266394 0.02724449449184407 1:5 2:1 14:1 16:2 37:1 50:1 54:1 78:2 86:2 91:1 99:1 120:1 160:1 167:1 169:1 170:1 172:1 174:1 180:1 199:1 207:1 211:1 221:2 226:2 265:1 268:2 282:1 324:1 350:2 356:2 360:1 362:1 366:1 394:1 442:1 489:1 510:1 520:3 521:1 631:1 685:1 730:1 826:1 1020:2 1024:1 1105:1 1116:1 1176:1 1217:1 1303:2 1449:1 1476:1 1518:1 1653:1 
0.0425737226911338 0.191318116958254 0.03711496190639648 0.03291607476948352 1:2 2:1 4:2 11:1 19:1 33:1 40:1 45:1 47:1 71:1 72:1 81:1 84:1 120:2 181:1 273:1 294:1 357:1 432:1 519:1 634:1 679:1 792:1 1804:1 
0.04483104003409775 0.08119821458020111 0.1059989754646373 0.001103211958621587 2:1 120:2 126:1 294:1 403:1 626:1 891:1 1325:1 
0 0.00115683214981912 0 0.02892358153663469 1:1 7:1 33:1 99:1 100:1 127:1 213:1 333:1 362:2 489:1 537:1 565:1 710:1 1111:1 1230:1 1455:1 1679:1 
0.09435929381997274 0.3596152475918355 0.1052406487702017 0.0950039693132232 2:1 4:1 5:1 19:1 64:1 112:1 214:1 687:1 
0.02110420860641556 0.04621384775604712 0.04079504187333388 0.007380777000298401 32:1 39:1 49:1 72:1 97:1 123:1 192:1 252:1 283:1 357:1 376:1 647:1 722:1 974:1 1013:1 1230:1 1494:1 1638:1 1831:1 
0.007896441238134358 0 0.005543912477639363 0 2:1 5:1 11:1 22:1 40:1 41:1 44:2 46:1 65:2 78:1 103:1 113:1 118:1 122:1 145:1 153:1 155:1 164:1 172:1 201:1 207:1 217:2 224:1 265:1 283:1 359:1 361:1 370:1 430:1 470:1 604:1 661:1 731:1 752:1 753:1 1075:1 1124:1 1158:1 1248:1 1328:1 1347:1 1612:3 1613:1 1674:1 1728:2 1991:1 
0 0 0 0.01869264058672521 2:1 11:1 45:1 51:1 54:2 69:1 119:1 127:1 157:1 180:1 191:1 195:1 214:1 217:1 249:1 261:1 316:1 361:1 400:1 503:1 550:1 620:1 1057:1 1103:1 1666:1 1774:1 
0 0.09071873869411691 0 0 3:1 5:1 65:1 70:1 96:1 103:1 117:1 191:1 249:1 359:1 545:1 796:1 1001:1 1040:1 1672:1 1856:1 1941:1 
0.005535819005431286 0 0 0 1:1 3:1 5:1 9:1 16:1 20:1 36:1 48:1 72:1 138:1 185:1 214:1 363:1 374:1 1389:1 1782:1 1925:1 
0.02846628249573482 0.0868758456768137 0.06418615486657714 0.00134588900816075 3:1 4:1 5:1 6:1 9:4 16:1 29:2 31:1 43:1 47:1 61:1 65:1 71:1 79:1 116:1 138:1 164:1 230:1 283:1 288:1 445:1 504:2 579:1 615:1 711:1 767:1 883:1 911:1 1127:1 1389:1 1672:1 1704:1 1782:1 
0.006839206755484889 0.0363936387729801 0.0183996651988619 0 0:4 1:1 3:1 4:1 6:1 8:1 10:1 13:1 14:1 15:1 24:1 26:2 31:2 35:1 41:1 43:1 48:1 49:1 51:1 61:1 66:1 79:4 80:1 88:2 89:1 98:2 106:1 119:2 121:1 128:1 130:1 165:1 167:4 216:2 223:1 228:1 245:1 259:1 272:1 283:1 308:1 329:1 366:1 393:1 396:1 419:1 429:1 485:2 502:1 548:1 576:1 617:1 625:2 655:1 661:1 668:2 684:1 690:1 714:1 736:1 748:6 836:1 848:1 863:1 879:2 1053:1 1114:1 1127:1 1325:1 1487:1 1805:1 1865:1 
0.02606180265861127 0 0.007700090445854681 0 6:1 11:1 13:1 14:1 25:1 26:1 30:1 37:1 69:1 91:1 113:1 117:1 220:1 249:1 256:1 307:1 576:1 581:1 617:1 899:1 1170:1 1889:1 
0 0.1256025319405151 0.007826376160283454 0 5:1 6:1 19:1 25:1 36:1 37:1 93:1 113:1 119:1 147:1 167:1 178:1 484:1 613:1 718:1 722:1 1231:1 1287:1 1653:1 
0.0005442605708471644 0.04961641237727716 0.01509989872943705 0 0:5 1:4 2:4 3:2 5:4 6:1 8:1 11:1 13:7 14:2 15:1 19:2 21:3 23:1 26:1 28:3 29:1 30:1 31:1 32:2 34:1 35:1 37:1 39:3 40:3 46:1 49:3 50:1 54:1 55:1 60:2 62:1 63:3 65:1 66:1 69:1 70:1 71:1 74:1 79:3 83:2 87:1 91:3 95:1 101:1 102:1 108:1 115:1 132:3 133:2 135:2 137:1 140:1 156:1 166:2 167:2 170:3 178:1 179:1 184:1 185:1 186:1 192:1 195:1 209:1 217:1 221:1 222:1 230:1 231:1 245:1 249:3 251:1 256:3 283:1 284:2 295:1 301:1 306:1 307:1 308:1 321:2 322:1 323:1 336:2 338:2 354:1 361:1 363:1 370:1 384:2 393:2 396:1 402:1 404:1 405:1 417:1 453:1 494:1 501:2 522:1 529:1 530:1 546:1 552:1 566:1 576:2 578:1 617:2 624:1 627:1 629:1 651:1 653:1 659:1 698:1 732:1 792:1 882:1 883:1 887:1 904:1 931:1 1046:1 1065:1 1090:1 1122:1 1157:2 1182:1 1216:1 1326:1 1340:1 1358:1 1377:1 1405:1 1451:1 1460:1 1522:1 1551:1 1602:1 1623:1 1667:1 1787:2 
0.03664701443357175 0.1828147798141716 0.08775337380664287 0.05592197339153741 1:1 2:1 18:1 20:1 33:1 72:1 91:1 
0 0.03124305679966638 0 0 1:1 5:1 6:1 15:1 20:1 24:1 26:1 34:1 35:1 63:1 78:1 80:1 91:2 132:2 167:1 174:1 177:1 197:1 258:1 274:1 294:1 295:1 404:1 584:1 740:1 764:1 840:1 941:1 982:1 1065:1 1122:1 1392:1 1748:1 1787:1 
0 0.001719134862025976 0.03364558278273401 0.04031982666055508 30:1 41:2 45:1 49:1 119:1 129:1 197:1 218:1 284:1 514:1 522:1 639:2 731:1 915:1 945:1 948:1 1613:1 1930:1 
0.01068316339658098 0.3571351208766229 0.1448575708750164 0.01584433559955791 5:1 9:1 18:1 58:1 315:1 753:1 
0.04737298759695391 0.05187572987652444 0.04490353009736954 0.01507834365369956 0:1 3:1 6:1 7:1 12:1 21:1 22:2 24:1 31:1 36:2 41:1 96:1 108:3 113:1 117:1 133:1 151:1 199:1 200:1 222:1 414:1 415:1 568:1 697:1 852:1 1190:1 1214:1 1320:1 1334:2 1513:1 
0.1345301524690161 0.2065070157377834 0.1273207348274479 0.03207808492393567 4:1 20:1 22:1 35:1 222:1 644:1 870:1 946:1 947:1 1058:1 1136:1 1205:1 1495:1 
0.01036367048874355 0.2017090140406924 0.03582074639549929 0.05286299128147724 5:1 6:1 18:1 33:1 97:1 229:2 313:1 336:1 
0.01947700650895388 0.112371697151142 0.01996833549228636 0 5:1 6:1 8:1 43:1 45:1 47:1 73:1 273:1 296:1 377:1 420:1 487:1 670:1 1133:1 1764:1 
0 0.08110821993093634 0 0 5:1 16:1 20:1 23:1 96:1 117:1 119:1 307:1 406:1 473:3 670:1 770:1 1052:1 1081:1 
0.05475107637427113 0 0.01011897813278034 0.02157975151479812 5:1 31:1 154:1 213:1 229:2 254:1 332:1 930:1 1221:1 
0.003615991692912372 0.03488038561748346 0.02882089092216458 0.003524710735030736 2:2 3:2 5:1 6:1 10:2 16:3 17:1 27:1 32:2 37:1 43:1 45:1 54:1 59:2 64:1 73:1 76:1 80:1 93:2 102:1 154:1 160:1 169:1 204:1 207:1 238:1 246:1 306:1 395:1 448:1 493:1 610:1 809:1 973:1 992:1 1015:1 1023:1 1045:1 1101:1 1343:1 1565:1 1583:1 1693:1 1697:1 1729:1 1735:1 
0 0.005922791192053961 0 0 5:1 6:1 18:1 44:1 65:3 96:1 103:1 139:1 181:1 191:1 258:1 261:1 272:1 306:1 369:1 405:1 432:1 509:1 640:1 709:1 716:1 760:1 1145:1 1150:1 1364:1 1561:2 1691:1 1751:1 1871:1 
0.001157079894347038 0 0.04313038681578298 0.01745134016952675 6:1 28:1 32:1 37:1 40:1 44:1 65:2 78:1 96:1 139:1 145:1 165:2 181:1 191:1 269:1 285:1 306:1 402:1 409:1 480:1 502:1 542:1 554:1 580:1 639:1 643:1 700:2 712:1 715:1 716:1 753:1 760:1 1002:1 1097:2 1108:1 1210:1 1243:2 1436:1 1683:1 
0.004175718769099443 0.03167558600407117 0 0 8:1 26:1 43:1 136:1 139:1 261:1 306:1 593:1 649:1 731:1 753:1 1009:1 1234:1 1715:1 1853:1 
0.07775530191169826 0.0840769740977247 0.09522102437046526 0.04912454718655563 1:1 16:1 19:1 20:1 24:1 37:1 56:1 73:1 123:1 155:1 208:1 343:1 443:1 490:1 508:1 535:1 573:1 1085:1 
0 0.5587680389709569 0.1180576832243277 0 5:1 38:1 62:1 73:1 213:1 421:1 778:1 
0.02785163614821987 0.041894929782312 0.03634432685322637 0.008964543447146799 0:1 3:1 4:1 23:1 26:2 30:1 37:1 40:1 44:1 67:1 68:1 98:1 101:1 102:1 110:1 125:1 129:1 131:1 141:1 185:1 196:2 205:1 218:1 220:1 259:1 264:1 273:1 281:1 315:1 355:1 361:1 377:1 449:1 521:1 531:1 566:1 577:1 585:1 639:1 647:1 672:3 806:1 807:1 901:1 908:1 915:1 959:1 1056:1 1149:1 1396:1 1418:1 1453:1 1485:1 1515:1 1882:1 
0 0.02726639459736188 0.00403928940502792 0 1:1 2:3 3:3 4:1 5:5 7:1 11:1 19:3 23:1 24:2 26:2 27:1 30:1 38:2 41:1 47:1 53:2 54:1 55:2 58:1 65:2 66:1 73:6 88:2 90:5 95:1 97:4 105:3 107:1 109:1 114:4 117:1 121:1 133:1 138:1 168:1 171:2 176:1 198:1 208:1 211:1 214:1 217:1 233:2 245:1 263:1 269:1 274:1 282:3 283:1 293:1 325:1 330:2 338:1 348:1 353:1 373:1 407:3 411:1 433:1 443:1 445:1 459:1 468:1 469:1 528:1 538:1 567:1 625:1 640:1 793:1 881:1 915:2 945:1 952:1 967:1 981:2 1020:2 1038:1 1052:2 1066:1 1129:1 1134:2 1157:1 1168:1 1171:2 1176:1 1388:2 1418:1 1481:1 1482:3 1653:1 1662:1 1761:1 1765:3 1772:1 1778:1 1888:1 1912:1 1933:1 1935:1 1960:1 1971:1 1997:1 
0.04640865551340117 0.0921314158289004 0.05710304821728342 0.03614913943162152 0:1 1:1 2:1 9:1 11:1 21:2 23:1 30:1 47:1 73:1 114:4 124:1 254:1 330:1 359:1 407:1 660:1 697:1 1200:1 1237:1 1458:1 
0.04368929420435183 1 0.5451186661325499 0.1322371763991452 20:2 
0.007790640116431082 0.03025344137954252 0.02870896709402498 0.00122638765500213 1:3 4:2 5:2 6:2 8:2 12:1 16:1 18:2 29:2 30:2 36:1 46:2 52:3 53:4 65:1 66:1 67:1 71:1 73:1 77:1 86:1 88:1 89:1 94:2 106:1 112:1 113:2 114:1 115:1 118:2 121:3 133:1 134:1 149:1 154:1 157:1 164:1 166:1 168:2 169:1 171:1 173:1 178:1 182:2 185:1 200:2 210:1 214:1 224:1 228:1 233:3 236:2 243:1 248:3 254:1 260:1 270:1 273:1 285:1 308:1 330:2 332:1 353:3 366:1 372:1 389:1 407:2 415:1 448:1 455:1 465:1 476:1 496:1 500:1 502:2 512:1 524:1 562:1 569:1 572:1 636:1 666:1 694:2 701:1 778:2 798:1 809:2 812:1 838:3 855:2 861:1 942:1 1006:1 1027:1 1057:1 1074:2 1109:1 1125:1 1134:1 1172:1 1203:1 1206:1 1226:2 1233:1 1237:2 1267:1 1278:2 1284:1 1318:1 1436:1 1565:1 1576:2 1621:1 1674:1 1815:1 1907:2 
0.02880142501079058 0.06575896618786733 0.03195603854878167 0.03342856008640149 2:1 4:1 6:2 7:1 10:4 18:1 24:1 26:1 33:1 35:1 41:1 55:1 58:1 75:1 87:2 88:3 90:3 93:1 96:1 97:1 124:1 137:1 146:1 153:1 163:1 171:2 177:1 213:1 246:3 266:1 267:1 294:1 325:1 327:1 344:1 354:1 361:1 369:1 415:1 435:1 442:1 516:4 518:1 533:1 573:1 574:1 603:1 667:2 728:1 733:1 953:1 954:2 964:1 1012:1 1043:1 1146:2 1263:1 1273:1 1376:1 1528:1 1705:1 1839:1 
0.005949397452818902 0.02462917552716882 0 0 0:1 6:1 9:1 11:1 16:1 17:2 18:2 24:1 37:1 43:1 55:2 65:1 88:1 109:1 128:2 159:1 179:1 194:1 198:1 220:1 248:1 271:1 285:1 297:1 316:1 330:2 369:1 407:2 622:1 856:1 1187:1 
0 0.05643031881026278 0.02055241563013046 0 0:2 1:1 5:2 8:2 13:1 15:1 34:1 37:1 38:1 55:1 65:1 67:1 75:1 78:1 82:1 102:2 105:2 124:1 128:1 129:1 133:1 138:1 140:1 147:1 163:1 208:1 229:2 294:1 302:1 313:1 334:1 418:1 423:1 598:1 648:1 705:2 761:1 929:1 1027:1 1080:1 1109:1 1143:2 1290:1 1454:1 1582:1 1623:1 1624:1 1697:1 1721:1 1869:1 1873:1 1937:1 1985:1 
0 0.3768326960005859 0 0 5:1 85:1 134:1 196:1 903:1 1013:1 1501:1 
0 0.3461903069104311 0.01637846512227404 0.09530615566521479 80:1 85:1 537:1 612:1 732:1 903:1 
0.06943767283669081 0.01755680915179456 0.0428928839925171 0.02216835284336715 1:1 4:1 7:1 11:1 18:1 25:1 38:1 43:1 72:1 80:1 105:1 110:1 217:2 231:1 290:1 327:1 338:1 649:1 741:1 746:1 979:1 1053:1 1074:1 1510:1 1766:1 
0.09184228554886759 0.2112454991926877 0.09481102499200464 0 0:2 1:1 43:1 60:1 61:1 72:1 103:1 185:1 351:1 359:1 363:1 887:1 1008:1 
0 0.05021106181090241 0.05446799383517959 0 0:1 3:1 5:1 7:1 20:1 38:1 53:1 55:1 66:1 84:1 105:2 124:1 150:1 193:1 213:1 357:1 439:1 687:1 829:1 952:1 992:1 1314:1 1338:1 1511:1 
0 0.09230257832895528 0 0 7:1 29:1 78:1 80:1 103:1 105:1 163:1 171:1 261:1 316:1 327:1 359:1 369:1 528:1 559:1 580:1 640:1 651:1 674:1 964:1 1284:1 1379:1 1794:1 
0.006257588444370466 0.1551000435070407 0.0550456895921786 0.007371830775183481 0:2 1:1 4:2 6:2 7:1 9:1 12:1 19:2 20:1 29:1 34:1 38:1 44:1 45:1 62:1 70:2 81:1 86:1 95:1 103:1 122:1 127:1 137:1 138:1 168:1 170:1 181:1 213:1 220:1 239:1 249:1 256:1 258:1 280:1 282:1 353:1 359:1 379:1 387:1 416:1 435:1 454:1 513:1 733:1 759:1 774:1 775:1 841:1 929:1 1051:1 1053:2 1337:1 1467:1 1704:1 
0.01227500150444952 0.03999286908594448 0.03354969801209254 0.006994646530670354 0:2 5:2 10:1 14:1 15:1 17:1 23:1 28:1 30:1 31:1 34:1 38:2 42:3 51:2 56:2 59:1 65:1 77:1 78:2 83:1 93:1 105:2 108:2 116:1 125:1 127:1 129:2 208:1 239:1 243:1 379:1 398:1 399:1 404:1 444:1 467:1 476:1 479:1 531:1 567:2 598:2 599:1 602:1 637:1 760:1 761:2 796:1 1084:1 1089:1 1122:1 1191:1 1199:1 1242:1 1374:1 1441:1 1585:1 1743:2 1861:1 
0.01523016307945219 0.06236461591537729 0.01481682168893495 0 3:1 4:1 11:1 22:1 40:2 71:1 91:1 158:1 167:1 202:1 252:1 317:2 324:1 349:2 393:1 486:1 527:1 549:1 824:1 850:1 900:2 922:1 1054:1 1063:2 1206:1 1215:1 1301:1 1356:1 1425:1 1629:1 1632:1 1639:1 1837:1 
0 0.2464106781382987 0.05309174001854692 0 5:2 8:3 9:1 18:2 22:2 41:1 62:1 66:1 69:1 93:2 143:1 154:1 261:1 453:1 593:1 816:1 1460:1 1774:1 
0.1924038935552276 0.3007167869544264 0.3696184109075382 0.1679727532060459 29:1 107:1 308:1 526:1 1174:1 
0.009368371099225956 0.04736738298378185 0.07154544010693777 0.02152324676895442 5:1 7:1 15:1 25:1 33:1 34:1 37:1 49:1 52:2 55:1 103:1 136:1 148:2 154:1 185:1 206:1 289:1 359:1 470:1 778:1 862:1 1169:1 1394:1 1579:1 
0 0.05838120793678652 0 0 5:1 8:2 9:4 16:5 19:1 20:1 23:1 24:1 26:1 27:1 29:1 36:1 40:1 41:1 43:1 49:1 53:1 64:1 66:1 71:2 101:1 113:4 129:3 154:2 155:1 165:2 193:1 198:1 204:1 248:1 256:3 257:1 278:1 289:1 324:1 358:1 359:1 414:1 427:1 431:1 464:1 549:1 579:1 616:1 631:2 641:1 646:1 660:1 697:1 701:1 744:2 841:1 904:1 926:2 934:1 970:1 989:1 996:1 1052:1 1077:2 1096:1 1333:1 1369:1 1403:1 1504:2 1711:1 1988:1 
0.01697746544617784 0.05373187542774407 0.03815278097700366 0 2:1 3:1 5:1 22:2 32:1 41:1 53:1 62:1 69:1 149:1 187:1 219:1 223:1 240:1 241:1 269:1 323:1 461:1 473:1 474:3 502:2 509:1 512:1 534:2 585:1 676:1 739:1 829:1 1092:1 1557:1 1713:1 1821:1 
0 0 0 0.01240802087160329 4:1 5:1 16:1 35:1 48:1 51:1 53:1 60:1 64:1 93:1 103:1 126:1 127:1 134:1 151:1 180:1 182:1 194:2 195:1 236:1 251:1 256:1 260:1 289:2 346:1 347:2 377:1 386:1 387:1 415:1 474:6 476:1 483:1 512:3 557:1 622:1 676:3 713:1 739:3 842:1 852:1 880:1 902:1 914:1 988:1 1033:1 1381:1 1395:1 1900:1 1921:1 
0.004037664827126198 0 0 0.00754015976604664 6:2 7:2 26:2 75:1 80:1 90:1 96:1 103:1 112:1 118:1 139:1 140:1 149:1 157:1 172:1 214:1 219:1 296:1 350:1 359:1 441:1 450:1 457:1 461:1 619:1 626:1 684:1 752:1 980:2 1064:1 1281:1 1347:1 1509:1 1533:1 1599:1 
0.008377704740480501 0 0.02963828488899829 0.002369083793523146 7:1 41:1 81:1 133:1 151:1 156:1 236:1 290:1 306:2 307:1 572:1 704:1 915:1 997:1 1146:1 1284:1 1688:1 1773:1 1937:1 
0 0 0.01015383944743234 0 5:1 6:1 17:1 29:1 37:1 44:1 50:1 55:1 65:1 130:1 155:1 195:1 200:1 259:1 306:1 318:1 330:1 482:1 555:1 626:1 832:1 841:1 962:1 980:2 1281:2 1291:1 
0.02762668558949233 0.09120784299492421 0.0194068413787369 0.02233545320359926 2:1 3:1 7:3 17:2 27:1 44:1 54:1 57:1 70:1 88:1 104:1 168:1 180:2 195:2 200:1 209:1 216:2 219:1 238:1 330:1 333:1 353:1 392:1 424:1 432:1 461:1 532:1 619:1 626:1 639:2 847:1 952:1 980:1 1014:1 1049:1 1095:1 1127:1 1137:1 1212:1 1315:1 1330:2 1386:1 1483:1 1560:1 
0.0277929328994549 0.02479905196603676 0 0.00970505714767763 1:2 2:1 3:1 6:1 30:1 33:1 34:3 42:1 44:1 54:2 61:1 64:1 72:2 78:1 84:3 100:1 108:1 111:1 113:1 131:1 153:1 182:1 185:1 192:1 215:1 240:2 256:1 301:1 304:1 307:1 340:2 380:1 394:1 418:1 429:1 433:2 502:1 514:1 520:2 561:1 579:1 594:1 616:1 675:1 692:1 788:1 799:1 893:1 902:1 911:1 928:1 1042:1 1183:1 1271:1 1333:1 1499:1 1828:1 1832:2 1910:2 
0.01148222149048612 0.03676429290299544 0.01957895855518402 0.01371171557430698 2:3 3:1 4:1 5:1 6:1 15:1 16:1 19:2 25:1 30:1 31:1 34:5 35:1 37:2 40:1 46:1 55:3 64:1 66:1 69:1 76:3 78:1 82:1 101:1 102:1 108:1 115:1 117:1 133:3 134:1 140:1 142:2 154:1 173:1 185:1 186:1 190:2 197:1 210:1 222:1 250:2 251:1 286:1 341:1 355:1 380:1 382:1 431:1 500:1 547:1 554:1 579:1 592:1 597:1 653:1 679:1 719:1 733:2 774:1 824:3 900:1 902:1 921:1 985:1 1060:1 1075:1 1109:1 1117:1 1225:1 1458:1 1487:1 1568:1 1703:1 1722:1 1869:1 
0 0.08529048651976055 0.0358430383167849 0 5:1 10:1 17:2 24:1 30:2 33:1 37:1 55:1 59:1 79:1 80:1 82:1 87:1 97:1 110:1 115:1 204:1 272:1 325:1 341:1 401:1 428:1 577:1 708:1 855:1 857:1 885:1 914:1 1072:1 1155:1 1668:1 1733:1 1835:1 
0.02184044464076931 0.1960152994571591 0.01212847919172886 0 0:1 1:1 5:2 6:1 7:1 19:1 32:1 185:1 478:1 500:1 711:1 
0.02898500167729038 0.0293417700240081 0 0.008659575288632726 1:4 5:1 15:1 25:3 55:1 62:1 85:1 87:1 115:1 117:2 133:1 142:1 149:1 176:1 180:1 194:1 195:1 233:1 297:1 354:1 356:1 358:1 374:1 383:1 416:1 457:1 498:1 537:1 598:1 700:1 744:2 902:2 991:1 1017:1 1072:2 1121:1 1234:1 1301:1 1416:2 1485:1 1756:1 
0.003673618643536224 0.09030646499461847 0.03493936454100823 0.008837820853019887 11:1 27:1 31:1 41:1 62:1 101:1 122:1 141:1 143:1 166:1 169:1 188:1 191:1 198:1 277:1 338:1 377:1 403:1 756:1 799:3 817:1 1162:1 1946:1 
0.07241144417199966 0 0.01386477473469568 0.06513769564788496 18:2 122:1 261:1 276:1 316:2 403:1 429:1 430:1 749:1 799:2 1050:1 
0 0.05891225057121794 0 0 0:1 1:1 2:1 5:1 15:1 26:1 33:1 40:1 49:1 58:1 99:1 117:1 122:1 149:1 177:1 220:1 289:1 328:1 368:1 394:1 488:1 597:1 763:2 1279:1 
0.04289197925744912 0 0.06797597134257601 0 0:1 48:1 75:1 125:1 179:1 194:1 479:1 601:1 783:1 784:1 1619:2 
0 0.01843699546945465 0.05645117792088056 0 18:1 20:2 22:2 33:1 106:1 150:1 180:1 200:1 225:1 261:1 340:1 373:1 495:3 542:2 830:1 910:2 962:1 1180:1 
0.007088303151130041 0.02520135007156874 0.01147689543091761 0.02394564576709822 4:2 6:1 17:1 19:1 31:1 33:2 35:1 37:1 43:1 78:1 89:1 108:1 110:1 159:1 191:1 217:1 261:1 285:1 288:1 317:1 340:1 351:1 369:1 370:1 377:3 387:1 403:1 428:1 479:1 553:1 671:2 700:1 712:1 741:1 834:1 845:1 872:1 936:1 947:2 1001:1 1040:1 1187:1 1363:1 1402:2 1491:1 1740:1 1777:1 1856:1 1950:1 
0 0.02217174292452827 0 0.02081072360985569 11:1 17:1 22:1 26:1 28:1 32:2 33:1 37:1 46:1 53:1 55:1 83:2 89:2 175:1 219:1 232:1 261:1 275:1 279:1 296:1 304:1 307:1 316:1 404:1 419:1 427:1 430:1 509:1 571:1 742:1 769:1 771:1 811:1 832:1 969:1 1040:4 1226:2 1907:1 
0.05485749941898906 0 0 0.1050584302599101 5:1 6:1 7:1 12:1 130:1 193:2 220:1 411:1 847:1 
0.01582957262796857 0.100769820006934 0.01851955496186529 0.04023217459146335 3:1 7:1 58:1 103:1 151:1 191:1 219:1 261:1 275:1 285:1 375:1 403:1 433:1 624:3 825:1 914:1 1008:1 1155:1 1922:1 
0.001931831353707365 0.01418959521644922 0.003419964593259986 0 6:1 18:1 20:1 22:5 27:1 41:1 44:2 48:1 59:1 70:1 80:2 86:1 99:1 122:1 126:1 137:1 166:1 180:1 181:1 214:1 252:1 261:1 269:2 275:1 288:1 373:1 420:1 467:1 506:1 532:1 569:1 643:1 675:1 683:1 826:2 846:1 852:1 872:1 880:1 886:1 917:1 946:1 951:1 974:1 977:1 1094:1 1161:1 1180:2 1182:1 1202:1 1211:1 1250:1 1296:1 1382:1 1474:1 1481:1 1483:1 1493:1 1538:1 1593:1 1788:1 1801:1 
0.00348921666475424 0.07313061945064894 0.02370727446112559 0.02348938438363476 5:1 7:1 9:1 12:1 15:2 17:1 21:1 34:1 35:1 53:1 82:2 84:1 117:1 135:1 169:1 173:1 179:2 206:1 268:1 339:1 367:1 479:1 490:1 536:1 571:1 584:1 601:1 621:1 644:1 695:1 699:1 929:1 1073:1 1088:1 1164:1 1545:1 1832:3 
0.018648277370824 0.007259736337362202 0 0 0:1 2:1 4:1 5:1 6:2 8:1 11:2 20:1 25:2 30:1 34:3 36:1 40:1 45:1 59:1 80:1 90:1 95:1 209:1 238:1 282:1 338:1 344:1 345:2 584:2 740:1 872:1 912:1 1077:1 1103:1 1109:1 1164:1 1169:1 1226:1 1496:1 1978:1 
0.01638673906557672 0 0.03396459193984417 0.01210064387352068 0:2 17:1 18:1 28:1 45:1 51:1 53:2 72:1 88:1 90:1 93:1 112:1 124:1 138:2 148:1 185:1 196:1 267:1 280:1 283:1 302:1 342:1 351:1 420:1 443:1 472:2 558:2 571:1 650:1 718:1 726:1 782:1 806:1 866:1 869:1 1008:1 1017:1 1169:1 1657:1 1675:1 
0.002471450526679688 0.1138477952325035 0.05408957156234509 0.02856586437807169 1:1 6:1 9:1 17:1 25:1 33:1 43:1 51:2 53:1 61:1 65:1 82:1 84:1 113:1 124:1 134:1 216:1 240:1 273:1 296:1 316:1 358:1 408:1 414:1 502:1 624:1 838:1 976:1 994:1 999:1 1245:1 1622:1 
0.006172197780922561 0.07423407178965589 0.01534088265641394 0.01983694002055382 2:2 4:1 14:1 28:2 33:1 36:1 39:1 40:1 43:1 44:1 62:1 80:1 85:1 87:1 102:1 207:1 209:1 297:1 299:1 435:1 452:1 554:1 562:1 571:1 671:1 693:2 752:1 766:2 772:1 856:1 1017:1 1066:1 1113:1 1157:1 1412:1 1452:1 1544:1 1775:2 
0.04921248649589387 0.1101025321507795 0.005970979278697449 0.02367652596935089 0:1 1:1 4:1 5:1 18:1 45:1 46:1 64:1 91:1 136:1 138:2 190:1 246:1 280:1 283:1 286:1 321:1 331:2 472:1 935:1 994:1 1017:1 1359:1 1496:1 1555:1 1649:1 
0.0466141620018124 0.6281770523545369 0.135558436754634 0 0:2 2:1 7:1 11:1 30:1 91:1 134:1 141:1 345:1 607:1 
0.1218071289542405 0.1782234126879353 0.1560548260876655 0.05501920503886562 4:1 18:1 22:1 32:1 78:1 131:2 269:1 317:1 411:1 1302:2 
0.005529246781781281 0.002864404701838377 0 0.002116031417118276 3:1 7:1 10:1 11:1 17:1 18:3 19:1 21:1 22:1 26:1 28:1 37:1 39:2 41:1 42:2 46:1 47:1 49:2 53:1 57:1 65:2 67:2 70:7 74:1 75:1 78:2 83:2 89:1 90:1 97:1 101:1 118:1 124:2 130:2 135:1 144:13 145:1 157:1 164:1 173:1 175:1 181:1 198:2 207:1 213:1 227:1 255:1 259:2 275:2 288:1 294:1 313:1 327:1 329:1 332:2 333:1 335:1 361:1 370:1 405:1 409:1 427:1 429:1 431:1 434:1 467:1 481:1 487:1 656:1 712:3 734:1 747:2 751:1 755:1 757:1 759:1 772:1 839:2 846:1 849:2 856:1 870:1 916:1 917:1 940:2 1010:2 1022:1 1023:1 1116:1 1124:1 1145:2 1150:3 1187:1 1266:1 1286:1 1324:1 1346:1 1359:1 1502:2 1515:1 1541:1 1587:2 1621:1 1691:1 1746:1 1774:1 1878:1 1883:1 1992:1 
0 0 0.02994998735302334 0 2:1 4:1 8:1 11:1 18:1 21:1 22:2 24:1 26:1 27:1 31:2 37:1 40:1 41:1 44:3 46:1 48:1 55:1 57:1 67:1 70:2 78:1 103:1 134:1 143:1 144:9 156:2 157:1 179:1 194:1 201:1 219:1 230:1 252:1 257:1 274:1 275:1 317:1 340:1 354:1 466:1 481:1 496:1 533:1 545:1 552:1 571:1 594:1 656:3 706:1 751:1 757:1 759:1 817:1 1145:1 1332:1 1481:1 1488:1 1870:1 
0 0 0 0.01294037791094824 4:1 10:1 16:1 41:1 51:1 54:1 60:2 103:1 140:1 144:7 145:1 165:1 179:1 216:1 238:1 243:1 252:2 272:1 335:2 369:1 415:1 430:2 478:1 547:1 577:2 640:1 649:1 656:1 685:1 706:1 723:1 728:1 753:1 857:1 901:1 938:3 1360:1 1439:1 1739:1 1746:1 1984:1 
0.004686157317264994 0.02911349958955987 0.04253122787759717 0.002957320253258864 3:1 6:1 27:1 33:1 47:1 67:1 69:1 78:1 94:1 122:2 137:1 144:2 145:4 199:1 219:1 220:1 243:1 251:2 276:1 320:1 333:1 544:1 571:1 629:1 671:2 672:2 686:1 712:1 747:1 846:1 893:1 916:1 998:1 1050:1 1119:1 1145:1 1173:1 1339:1 1357:1 1399:1 1483:1 1504:1 1568:1 1610:1 1642:1 1677:1 1700:1 1847:1 1976:1 
0.4546509313728891 1 0.01275148097132273 0.2697924783453759 5:1 7:1 151:1 
0.01774492856261134 0 9.711841641728748e-05 0.003096419523540114 3:2 7:1 10:1 17:1 19:1 35:2 39:1 41:1 42:1 49:1 60:2 90:1 102:1 124:1 127:1 130:1 144:4 151:1 157:1 163:1 239:1 275:1 323:1 370:1 479:1 512:1 545:1 656:2 683:1 706:1 731:1 792:1 988:1 1338:1 1388:1 1585:1 1674:1 1691:1 1881:1 1953:1 
0 0.04068012481159089 0.01737264655107624 0 0:2 3:1 5:2 6:1 8:1 9:1 10:1 13:7 19:2 27:1 30:2 35:2 43:1 48:1 56:2 63:2 68:1 76:1 81:1 94:1 101:1 104:1 118:1 127:1 131:1 137:1 166:1 170:1 176:1 199:1 201:1 213:1 219:2 224:1 234:1 252:1 259:1 263:1 283:1 292:1 294:1 340:1 342:1 515:1 534:1 555:1 571:1 585:1 638:1 655:2 669:1 744:1 859:1 863:1 883:1 890:1 904:1 942:1 989:1 1107:2 1268:1 1287:1 1303:1 1326:2 1508:1 1613:1 1667:1 1699:1 1791:2 1920:1 1931:1 
0 0.07308218506881164 0.2093032085941772 0.02586146223279055 0:1 27:1 44:1 75:1 78:1 112:1 174:1 338:1 370:1 650:1 1903:1 
0.09375104434445532 0.1749337599113968 0.08847409597168843 0.01238266831589378 1:1 2:3 5:1 31:1 33:1 36:1 44:1 47:1 49:1 89:1 113:1 159:1 176:1 186:1 197:1 236:1 243:1 259:1 267:1 616:1 704:1 710:1 989:2 1975:1 1987:1 
0 0.005494476380002694 0 0 1:1 5:2 7:1 11:1 40:1 44:1 49:1 69:1 101:1 307:1 750:1 1198:1 1241:1 1581:1 1942:1 1969:1 
0 0.1427435234111106 0.09390678366459479 0 0:1 11:1 40:1 50:1 134:1 171:1 527:1 690:1 1000:1 1049:1 1059:2 1264:1 
0 0.0552515535169289 0 0 6:1 28:1 72:2 86:1 106:1 131:1 132:1 167:1 271:1 372:1 430:1 486:1 497:1 527:2 729:1 1110:1 1146:1 1298:1 1660:1 1667:1 1841:1 
0.003005818640973733 0 0.001138536574437126 0.006697868498675441 11:1 62:1 101:2 259:1 324:1 457:1 464:1 508:1 529:1 549:1 573:1 764:1 824:1 840:1 862:1 1003:1 1059:1 1110:1 1307:1 1663:1 
0 0 0.0195951823118269 0 10:1 95:1 146:1 152:4 182:1 211:2 324:1 461:1 549:1 588:1 889:1 1024:1 1106:1 1135:1 1504:1 1727:1 
0.0297456933749754 0.06998489605075976 0 0.01597862095827783 1:2 2:2 26:1 45:1 53:1 72:1 91:1 152:2 277:1 301:1 330:2 398:1 437:1 513:1 514:1 600:1 618:1 722:1 850:1 868:1 912:1 1069:1 1387:1 1407:1 1740:1 1817:1 
0.00769329882369209 0 0.01083765067167253 0 0:1 2:1 5:1 8:1 12:1 16:1 22:1 28:1 31:1 33:1 51:1 65:1 68:1 75:1 76:1 91:1 94:1 101:1 106:1 122:1 130:1 152:1 157:1 159:1 259:1 267:1 305:1 333:1 465:1 478:1 498:1 588:1 889:1 925:1 1135:1 1214:1 1215:1 1440:1 1454:1 
0 0.01590266435808414 0 0 11:1 117:1 134:1 152:1 299:1 307:1 341:1 1069:1 1590:1 
0 0.0006402288198238336 0 0 2:1 4:2 6:3 7:1 8:2 11:2 12:3 20:3 26:1 43:1 53:2 56:1 60:1 68:1 86:2 88:1 109:1 113:1 116:1 128:1 131:2 137:1 152:6 154:1 165:2 176:1 211:4 219:1 221:2 257:1 264:1 281:1 319:1 339:6 346:1 372:1 390:1 400:1 406:1 419:1 426:1 453:1 491:1 503:1 541:1 577:2 588:1 604:1 652:1 674:2 714:1 816:1 826:1 838:1 890:1 892:1 895:1 901:1 927:7 936:1 941:1 975:2 979:1 1014:1 1106:2 1140:1 1171:1 1186:1 1217:1 1262:1 1278:1 1282:1 1329:1 1366:1 1373:3 1430:1 1431:1 1458:1 1521:1 1546:1 1588:1 1596:1 1667:1 1761:1 1767:1 1779:2 1781:1 
0 0 0 0.002600718040645841 4:1 24:1 35:1 44:1 60:1 68:1 80:1 101:1 117:2 152:1 259:1 263:1 339:1 376:1 448:1 588:1 819:1 889:1 1135:1 1590:1 
0 0.02819819384592056 0 0 4:1 19:1 27:1 32:1 35:1 36:1 72:1 127:1 152:5 193:1 211:1 283:1 323:1 326:1 339:1 354:2 388:1 491:1 493:1 710:1 757:1 821:1 849:1 889:1 892:2 961:1 980:1 1018:1 1024:1 1078:1 1106:1 1135:1 1152:1 1177:1 1210:1 1278:1 1298:1 1319:1 1361:1 1453:1 1521:2 1591:1 1663:1 1757:1 
0.006684761116445643 0 0 0.01112881479948549 0:2 1:1 3:1 4:2 7:1 11:2 12:2 16:1 21:1 36:1 37:1 40:1 44:2 47:1 51:1 55:2 56:1 60:1 66:1 76:1 77:1 89:1 96:1 101:1 115:2 116:2 118:1 146:1 149:1 150:2 152:6 165:1 178:1 192:1 193:1 200:2 211:2 213:1 218:1 226:1 234:1 237:1 246:1 255:1 259:1 263:1 268:1 299:1 339:4 346:1 348:1 350:1 376:2 392:1 402:2 448:2 470:1 491:2 497:1 508:1 514:1 529:1 573:1 577:1 588:1 600:1 604:1 618:2 636:1 637:1 645:1 652:1 657:1 662:1 737:1 738:2 758:1 803:1 874:1 887:1 892:1 920:1 961:2 975:1 991:1 998:2 1005:1 1057:1 1073:1 1157:1 1179:1 1204:1 1255:1 1261:1 1316:2 1383:1 1387:1 1391:1 1482:1 1488:1 1510:1 1779:1 1814:3 1836:1 1841:2 1845:1 1846:1 1934:1 1963:1 1995:1 
0.01742264655992256 0.07493380012371184 0 0.06313929013281643 152:1 167:1 362:1 440:1 476:1 1292:1 1729:1 1746:1 
0 0.006739767704895095 0 0 2:3 5:1 21:1 49:1 72:1 134:1 152:2 220:1 307:1 430:1 855:1 927:2 1024:1 1182:1 1512:1 
0.01734030072519668 0.1083121735399647 0.07492822459672854 0.05654182914347794 3:1 49:1 82:1 125:1 152:2 176:1 211:1 271:1 272:1 659:1 982:1 1146:1 
0.007046843001561122 0.1227877295916456 0.03083216500546797 0.01299999273398544 2:1 20:1 27:1 37:1 55:1 56:1 118:1 303:1 737:1 910:1 911:1 1255:1 1934:2 1966:1 
0.005797490769334289 0.008506917673276415 0.02127902936267143 0.03325860544313623 2:1 6:1 10:1 12:3 29:1 30:1 39:1 53:2 59:1 60:1 68:1 77:1 78:1 80:2 81:1 115:1 116:1 152:2 170:1 177:1 182:1 264:1 278:1 314:1 376:1 388:1 448:1 529:1 583:1 660:1 756:1 868:1 904:1 937:1 982:1 1019:1 1117:1 1179:1 1261:1 1387:1 1407:1 1869:1 
0 0.1189759674862681 0.06038515672397991 0.01122067482408211 0:1 4:1 5:1 12:2 19:1 53:1 56:1 67:1 72:1 152:1 193:1 202:1 232:1 247:1 274:1 303:1 353:1 376:1 457:1 552:1 671:1 892:1 1024:1 1401:1 1521:1 1779:1 
0.0350272681989812 0.1773780599206358 0.0351361455274396 0.04412302129862666 0:1 1:1 6:1 11:1 19:1 36:1 68:1 116:1 148:2 160:1 169:1 170:1 177:1 179:1 260:1 264:1 305:1 309:1 328:1 348:1 588:1 591:1 676:1 829:1 841:1 889:1 1135:1 1152:1 1223:1 
0.1084684674762916 0.22389990302616 0.08454823464835731 0.03274722897565639 0:1 1:3 3:1 8:1 9:1 12:1 35:1 43:2 45:1 51:1 101:1 116:1 156:1 362:1 454:1 596:1 643:1 961:1 1106:1 1186:1 1550:1 
0 0 0.05642790417407837 0 11:1 26:1 48:1 56:1 80:1 94:1 152:2 303:1 800:1 
0 0.01053168713015896 0.02871973319563471 0 0:3 2:5 3:2 4:4 5:1 8:1 14:1 16:1 17:1 18:1 24:1 28:1 31:1 33:1 35:1 37:1 40:1 45:1 49:1 59:2 68:1 70:1 77:1 99:1 103:1 106:1 110:2 115:1 119:1 120:2 153:2 160:1 167:1 175:1 178:1 227:2 236:1 268:2 300:1 310:1 323:2 336:1 356:1 360:2 380:1 389:1 394:2 409:1 413:1 424:3 431:1 432:1 441:1 455:1 461:1 479:1 491:1 519:1 636:1 690:1 694:2 698:1 749:2 781:2 816:1 823:1 827:1 862:1 874:1 887:1 889:2 890:1 900:1 915:1 1006:1 1044:1 1068:1 1135:2 1317:1 1319:1 1429:2 1472:1 1522:1 1886:1 1888:1 1890:1 1983:1 
0 0.06230289564464189 0 0 3:2 39:1 40:1 43:1 44:1 54:1 83:1 111:3 120:2 168:1 176:1 213:1 243:1 255:2 356:1 419:1 476:1 596:1 755:1 1343:1 
0 0.01598125820770735 0.02727919593590884 0 0:2 1:1 2:1 8:1 26:1 32:1 41:1 43:1 44:1 48:1 49:3 60:1 68:1 69:1 99:1 101:1 103:1 111:1 123:1 181:1 198:1 201:1 205:2 213:1 288:1 359:1 360:1 432:1 463:1 519:1 611:1 1313:1 1345:1 1412:1 1805:1 
0 0.2127342829258999 0 0 1:1 2:1 5:3 7:1 18:1 33:1 44:1 69:1 81:1 102:1 120:1 307:1 
0 0.3750248660954241 0 0.08926034511392421 2:2 3:1 5:1 24:1 80:1 103:1 
0.2764150064750216 0.5616981984785043 0.2991105480619568 0.4151232424301592 39:1 279:1 420:1 
0.05675256035664576 0.1266631398565377 0.1280887193676092 0.1189929580733164 3:2 10:1 37:1 46:1 115:1 145:2 256:1 315:1 326:1 333:1 842:1 1307:1 1425:1 1445:1 
0.03079006543149157 0.06541789714868858 0.02116070324063781 0 1:1 15:1 18:1 29:1 33:1 40:1 42:1 49:1 56:1 80:1 82:1 88:1 115:1 123:1 158:1 180:1 219:1 232:1 252:1 277:1 301:1 318:1 329:1 353:1 380:1 394:1 405:1 475:1 660:1 771:1 812:1 966:1 1009:1 1297:1 1417:1 1422:1 1815:1 1955:1 
0.17435534557497 0.3491912852242455 0.1888280152007794 0.2009181267945707 13:1 46:1 50:1 270:1 394:1 476:1 562:1 
0 0.2028498593863479 0.07885438986031096 0 13:3 37:1 44:1 45:1 80:1 101:1 140:1 326:1 498:1 583:1 978:1 1220:1 
0 0 0.004572234245247745 0 1:1 2:1 5:1 6:1 9:1 17:1 20:1 33:1 72:1 74:1 87:2 103:1 149:1 157:1 185:1 327:1 359:1 1914:1 
0 0.1034627993973097 0 0 1:1 2:1 5:2 13:1 167:1 987:1 1359:1 1571:1 
0.03720158331591952 0.1113425490258993 0.007610600193182033 0.009991858206512395 1:2 5:1 25:2 35:1 44:1 46:1 50:1 54:1 79:1 93:1 101:1 115:1 117:1 157:1 194:1 247:2 346:1 406:1 498:1 831:1 948:1 964:1 1394:1 1622:1 1792:1 1846:1 
0.6395848930839994 1 0.9686798611933517 0.8783791689277278 106:1 
0.03316364905557805 0.04789650452555511 0.07790239357804941 0.01331061028340075 0:2 3:2 4:1 8:3 27:2 31:3 47:1 60:1 75:1 81:1 102:1 118:1 125:1 164:1 180:1 198:1 201:1 214:1 217:1 237:1 255:1 342:1 354:1 358:1 365:5 383:1 429:1 541:1 550:1 565:1 591:1 653:1 655:1 719:1 731:1 814:1 844:1 916:1 1104:1 1140:1 1205:1 1209:1 1332:1 1456:1 1485:1 1609:1 
0 0.02098146468209681 0 0.002440615197130024 0:1 10:1 21:1 22:1 26:1 31:1 43:1 46:1 103:2 104:1 110:1 127:1 149:1 165:1 167:1 208:1 209:1 263:1 271:2 278:1 320:1 329:1 359:1 391:1 405:1 486:3 506:1 599:1 613:1 629:1 636:1 660:1 764:4 821:1 831:1 840:2 845:1 884:1 923:1 986:1 1057:1 1059:1 1063:1 1071:2 1116:1 1123:1 1138:1 1239:1 1538:1 1657:1 1742:1 1826:1 1874:1 1942:1 1969:1 1976:1 
0 0.002605479039148064 0 0 3:3 9:1 10:1 20:3 35:2 65:1 74:1 80:1 83:1 171:1 205:1 209:1 219:1 255:1 261:1 270:1 271:1 283:1 302:3 338:1 342:1 354:1 355:1 367:1 452:1 486:2 493:1 505:1 509:1 528:1 563:1 583:1 764:1 823:1 824:1 844:1 923:1 1071:2 1080:1 1123:3 1230:1 1320:1 1530:1 1942:1 1969:1 
0.1712990133318848 0.1742454785918409 0.155780435963718 0.1143725474714635 32:1 43:1 263:1 271:1 565:1 726:1 805:1 867:1 
0.01727277995543938 0.07867865396414245 0.01618039613190273 0.01115008773106667 6:1 11:1 12:1 14:2 17:1 22:1 26:1 43:1 49:1 57:1 60:1 65:1 67:1 74:1 96:1 130:1 176:1 187:1 195:1 208:1 214:1 236:1 271:1 302:4 457:2 486:2 800:1 905:1 977:1 1071:1 1123:1 1164:1 1215:1 1262:1 1317:1 1571:1 1678:1 
0.007315386146860115 0 0.005986583888694534 0 3:1 18:1 22:5 26:2 48:1 69:2 80:1 86:1 93:1 95:1 101:1 117:1 124:2 131:1 155:1 165:1 169:1 170:1 224:2 249:1 269:1 276:1 284:2 295:1 348:1 349:1 383:1 405:1 437:1 443:2 476:1 493:1 517:2 631:1 734:1 747:1 811:1 884:1 894:1 917:1 1006:1 1007:1 1031:1 1058:1 1119:1 1217:1 1308:1 1364:2 1460:1 1541:1 1589:1 1798:1 1825:1 1864:1 1939:1 
0.0308555423303303 0.1003118993167807 0.002942773250814607 0.009067835386169157 0:1 11:1 22:2 37:1 53:1 75:1 165:1 227:1 252:1 289:1 290:1 349:1 428:1 481:1 497:1 517:2 552:1 837:1 889:1 1267:1 1600:1 1788:1 
0 0 0.005706286507586098 0 0:2 2:1 3:1 6:1 16:1 27:1 28:1 31:2 37:1 48:1 53:1 60:1 69:1 91:1 103:1 105:1 106:1 108:2 122:2 186:1 214:2 238:1 285:1 293:1 315:1 332:1 430:1 436:1 467:1 517:1 532:1 574:1 625:1 682:2 701:1 731:1 752:1 753:1 782:1 807:1 823:1 827:1 895:1 947:1 999:1 1085:1 1122:1 1140:1 1173:1 1201:2 1209:1 1574:1 1687:1 1811:1 1815:1 1929:1 1939:2 
0 0.02119810435996134 0 0 2:1 4:1 5:1 41:1 60:2 106:1 108:1 140:1 145:1 199:1 276:1 517:1 575:1 852:1 871:1 1104:1 1190:1 1246:1 1466:1 1493:1 1905:1 
0.02975875854310353 0.08187937903698647 0.04502937727409066 0.06774691024568794 0:1 6:1 8:1 22:2 48:1 51:1 55:1 78:1 97:1 125:1 181:1 203:1 208:1 228:1 241:1 295:2 326:1 430:1 443:1 517:2 1023:1 1041:1 1094:1 1313:1 1332:1 1589:1 
0.0225756818835523 0.06343421150167561 0.06130239136290859 0.009153879203129602 3:1 20:1 21:2 22:2 41:1 48:1 62:2 67:1 68:1 73:1 94:1 98:2 117:1 127:1 136:1 140:1 149:1 158:1 179:1 219:1 221:1 237:1 255:1 257:2 282:1 295:1 301:1 305:1 411:1 505:1 517:1 553:1 695:1 816:1 986:1 999:1 1089:1 1150:1 1176:1 1198:1 1218:1 1283:1 1421:1 1513:2 1567:1 1711:1 1714:1 1821:1 1894:1 1896:1 
0 0.02453873820665583 0 0 1:1 5:1 7:1 10:1 17:1 72:1 106:1 115:1 120:3 186:1 327:1 356:1 360:1 463:1 565:1 585:1 
0.0001103468993778833 0.08675012620831156 0.01659385273529438 0.01300614456107155 2:4 7:1 8:1 16:1 26:1 33:1 49:1 50:1 54:1 67:2 68:1 77:1 80:1 82:1 95:1 101:1 117:1 120:2 123:1 127:1 128:1 134:1 160:1 172:1 267:1 286:1 308:1 315:1 351:1 379:1 397:1 400:1 487:1 489:2 543:1 728:1 782:1 924:1 991:1 1118:1 1423:1 
0.1360333181958913 0.2840056106070579 0.1325564460202406 0.1051470632075493 7:1 103:1 134:1 194:1 374:1 716:1 940:1 
0.03539964533245257 0.1683046674071435 0.02575176465848432 0.07534452272869466 6:1 7:1 8:1 9:1 36:1 75:1 234:1 236:1 306:1 453:1 611:1 716:1 771:1 830:1 1823:1 
0.01047933677652502 0.01053707631886289 0.02061056848835668 0.02745936777006354 6:2 7:3 51:1 68:1 78:1 125:1 238:1 359:1 449:1 477:1 554:1 677:1 830:1 856:1 909:1 974:1 1078:2 1084:1 1119:1 1393:1 1477:1 1700:1 1823:4 1857:1 
0.05071546411102624 0.1716710261874354 0.02963786279809108 0 0:1 2:1 5:1 11:1 16:1 38:1 54:1 62:1 69:1 94:1 128:1 182:1 207:1 293:1 450:2 452:1 512:1 545:1 585:1 678:1 771:1 909:1 949:1 960:1 1103:1 1499:1 1588:1 1723:1 1805:1 
0 0.1331022733813402 0 0 0:1 8:1 16:1 19:1 21:1 26:1 75:1 88:1 97:1 111:1 117:1 150:1 162:1 194:1 403:1 436:1 485:1 554:1 560:1 614:1 753:1 795:1 802:2 1249:1 1573:1 1715:1 1979:1 
0.07380776698106355 0.217238794037158 0.06820859548020702 0.1290660607684105 2:1 54:1 58:1 70:1 101:1 162:1 200:1 239:1 316:1 446:1 465:1 1487:1 1750:1 
0.008422062025124083 0.002043836202057255 0.03643833146761317 0.0225210450021365 2:2 11:1 45:1 58:1 162:1 194:1 237:1 277:1 283:1 369:1 446:1 462:1 541:1 611:1 620:1 655:1 702:1 773:1 863:1 1047:1 1069:1 1554:1 
0 0.09801642166066407 0 0 2:1 4:1 5:1 7:1 44:1 80:1 81:1 101:1 282:1 326:1 396:1 852:1 891:1 
0.0003939534032018866 0 0 0 5:1 8:1 11:2 30:1 38:1 39:1 45:1 47:1 51:1 82:1 109:2 118:2 167:1 196:1 199:1 204:1 205:2 216:1 300:1 321:1 332:1 345:1 385:2 451:1 531:1 541:1 602:1 606:1 633:1 678:1 702:1 714:1 719:1 746:1 836:2 915:1 965:1 1005:1 1013:1 1038:1 1220:1 1642:1 1702:1 
0.03372649081323536 0.1178531938759646 0.06065522712672832 0.02635275489562275 0:2 1:1 8:1 17:1 24:1 30:1 35:1 79:1 109:1 132:1 170:1 180:1 186:1 192:1 245:1 328:1 393:1 414:2 473:1 583:1 633:1 836:1 891:1 965:1 1005:1 1231:1 1241:1 1709:1 
0.1445079690773946 0.3364833799943758 0.1934051752231401 0.1072284779321855 41:1 92:1 108:1 490:1 1014:1 1320:1 
0 0.05340698460867711 0.00761209748341961 0 0:3 2:1 5:1 6:2 9:1 12:2 14:1 25:1 26:2 30:1 32:1 34:2 35:2 37:2 49:1 59:1 63:1 68:1 71:1 79:1 88:1 93:1 96:1 101:1 113:1 117:2 118:1 122:1 123:2 128:1 154:1 169:1 176:1 178:1 179:1 184:1 197:1 224:1 313:1 342:1 345:1 364:1 385:2 393:1 396:1 405:1 419:1 440:1 494:1 574:1 666:1 707:1 1079:1 1318:1 1343:1 1420:1 1472:1 1539:1 
0 0.01014818036088888 0.02502666989092361 0.02530408309997113 0:1 1:1 5:1 7:1 20:1 25:1 27:1 46:1 50:2 53:1 75:2 110:1 119:1 134:1 151:1 167:1 176:2 236:1 243:1 257:1 309:2 381:1 385:2 389:1 437:1 452:1 468:1 471:1 522:1 679:1 734:1 986:1 1069:1 1234:2 1585:1 1805:1 1812:1 1933:1 
0 0.03094477618417403 0 0 10:1 26:1 53:1 68:1 80:1 148:1 176:1 180:1 259:1 294:1 306:2 314:1 370:1 558:1 616:1 671:1 695:1 792:1 859:1 1007:1 1049:1 1073:1 1217:1 
0.02363477737067802 0.05772316654804089 0.04402624631817798 0.05035657214049459 16:1 27:1 33:1 40:1 64:1 65:1 69:1 119:1 139:3 191:1 241:1 269:1 277:1 593:1 601:1 681:1 731:1 762:1 810:1 1011:1 1184:1 1436:1 
0.02864243145160707 0.04505323145532466 0.06578227044514484 0.01657387957771939 0:1 2:1 7:2 24:1 31:1 54:1 60:1 67:1 96:1 139:1 151:1 198:1 199:1 200:2 224:1 238:1 306:1 462:1 477:1 509:1 512:1 714:1 825:1 962:1 1153:1 1691:1 1715:1 
0.01156469261171155 0.055051500324227 0.01220449504427779 0 3:1 9:1 17:1 26:1 33:1 39:1 106:1 139:1 173:1 191:1 199:1 205:1 217:1 220:1 225:1 232:1 241:1 291:1 400:1 448:1 470:1 488:1 507:2 543:1 550:1 601:1 628:1 731:1 833:1 1023:1 1097:1 1300:1 1360:1 1700:1 1766:1 1851:2 1914:1 
0 0.02880805885413167 0 0 5:1 7:1 26:1 33:1 145:1 186:1 391:1 432:1 529:1 575:1 704:1 716:2 1153:1 1424:1 1844:1 
0.003276459121653353 0.01352279455545087 0 0 0:1 6:2 7:1 11:1 16:1 26:1 37:2 69:1 75:2 102:1 139:1 140:1 148:1 149:1 202:1 245:1 309:1 389:1 436:1 440:1 457:1 480:1 674:1 684:1 715:1 884:1 962:1 967:1 1077:1 1097:1 1140:1 1193:2 1226:1 1284:1 
0.04438496971697288 0.1018688568446558 0.06130255465880424 0.06020701168032695 1:1 2:2 6:1 27:1 29:1 158:1 171:1 296:1 315:1 318:2 324:3 549:2 1063:1 1181:1 1274:1 1475:1 1611:1 1920:1 
0.07329478311534994 0.04298396610563735 0.04283232771922643 0.02688557151563458 1:1 2:4 6:1 10:1 16:2 17:1 22:1 27:2 32:1 33:1 43:1 48:1 71:1 145:1 281:1 313:1 314:1 369:1 405:1 483:1 503:2 626:2 655:1 714:1 900:1 1532:1 1629:1 1708:1 
0.01813550170402111 0.04603807416960568 0.01756190123045936 0 2:2 4:1 7:1 11:2 13:4 26:3 31:1 33:1 60:1 69:1 117:1 119:1 122:1 227:2 320:1 419:1 593:1 621:1 899:1 949:1 1915:1 
0 0.0233648470248599 0 0 1:2 3:2 5:2 11:1 16:2 20:1 25:1 26:2 27:1 39:1 49:1 50:2 60:1 71:1 73:1 75:1 79:1 86:1 118:1 142:2 165:1 183:2 203:1 210:1 227:1 243:1 327:2 401:1 406:1 443:1 449:1 456:1 468:1 477:1 562:1 597:1 728:1 1009:1 1055:1 1066:1 1078:1 1272:1 1453:1 1619:1 1866:1 1883:1 
0 0.01007699199778674 0.00132260285815288 0 1:1 8:1 11:1 13:3 19:1 26:2 36:1 37:1 45:1 54:1 68:2 72:1 91:1 97:1 145:1 160:1 167:2 217:1 254:1 349:1 379:1 402:1 457:1 484:1 489:1 508:1 521:1 573:1 629:1 714:1 987:2 1018:1 1055:1 1118:1 1158:1 1180:1 1220:1 1428:1 1508:1 1643:1 1708:1 
0.05814571288395243 0.1091070842102575 0.05492004649740744 0.007867715650574722 0:1 4:4 13:6 20:1 24:1 26:1 108:1 132:1 143:1 147:1 199:1 227:1 292:1 320:1 466:1 484:2 623:1 685:1 714:1 733:1 735:1 774:1 1220:2 1428:3 1548:1 1670:1 1699:1 1738:1 
0 0 0.07339279148205939 0 0:2 1:1 2:1 5:1 20:2 50:1 122:1 192:1 236:1 238:1 602:1 624:1 1029:1 1224:1 
0 0 0.005589146814242071 0 5:2 6:1 7:1 27:1 44:1 53:1 65:1 96:1 110:1 112:1 126:1 134:1 139:2 145:3 150:1 151:1 155:1 165:1 186:1 227:1 230:1 258:1 281:1 359:1 369:1 409:1 453:1 521:1 599:1 659:1 665:1 696:2 700:2 713:1 749:1 753:1 762:1 788:2 812:2 964:1 1045:1 1047:1 1097:1 1190:1 1243:3 1284:1 1377:1 1436:1 1683:2 1780:1 
0.02721350391366658 0 0.01260006376520535 0.01555508229740289 3:1 4:1 6:1 8:3 10:1 32:1 39:2 42:1 43:1 48:1 51:2 55:1 57:2 86:1 96:1 139:4 158:1 165:3 170:1 179:1 181:1 190:1 195:1 202:1 207:1 221:1 224:1 243:1 257:1 313:1 348:1 405:1 411:1 415:1 427:1 431:1 480:1 667:1 696:4 716:1 772:1 829:1 848:1 856:1 1108:1 1210:1 1227:1 1272:1 1424:1 1469:1 1491:1 1561:1 1678:1 1755:1 1798:1 1804:1 1851:1 
0 0.05677252100252602 0 0 5:2 7:1 10:1 28:1 51:1 139:1 148:1 306:1 333:1 353:1 499:1 502:1 696:1 725:1 967:1 1046:1 1462:1 
0 0.07307675154169668 0 0 5:1 11:1 20:1 58:1 95:1 146:1 207:1 425:1 462:1 477:1 560:2 570:1 630:1 727:2 1064:1 1299:1 1457:2 1539:1 
0 0.02759454643805474 0 0.02357997894661606 6:1 8:2 9:1 11:1 12:1 16:1 18:1 20:1 36:1 46:1 48:1 75:1 111:1 131:1 133:1 153:1 162:1 300:1 313:1 352:1 369:1 413:1 496:1 551:2 557:1 649:1 664:1 724:1 727:1 773:2 783:1 790:1 802:1 959:2 988:1 1299:1 1769:1 1862:1 
0.06273718768869477 0.1421651076778049 0.009940873500589054 0.06287769809452513 2:1 5:1 162:1 727:1 
0.02645518378005356 0 0.03442001822836507 0.1127213352352532 11:1 51:1 97:1 367:1 560:1 570:1 727:1 790:1 1715:1 
0.0117915856649612 0.01913524511392989 0 0.02062087103752069 5:1 8:1 10:1 11:1 16:2 48:1 54:1 64:1 77:1 83:1 157:1 158:1 194:1 211:1 241:1 425:1 523:1 529:1 551:1 570:2 643:1 687:1 902:1 1045:1 1213:1 1382:1 
0 0 0.0001450912574938692 0.009531033739513783 18:4 20:1 21:1 24:1 37:1 55:1 88:2 146:1 157:1 159:1 162:10 181:1 194:1 199:1 246:1 285:1 338:1 375:1 390:1 425:6 454:2 481:1 496:2 505:1 551:1 559:1 560:2 564:1 570:2 636:1 660:1 676:1 726:1 783:2 791:1 815:4 865:3 951:1 1043:1 1051:1 1225:1 1256:1 1388:1 1430:1 1796:2 1977:1 
0 0 0.004762555646011043 0 0:1 2:1 3:2 4:1 11:1 18:1 19:3 31:1 33:1 39:1 42:1 44:1 59:1 60:1 75:1 80:1 86:1 95:2 96:1 116:1 127:1 133:1 137:1 143:1 149:5 153:1 158:1 160:1 162:3 170:1 188:1 193:1 195:1 198:1 207:1 209:1 230:1 265:1 267:1 275:1 291:1 313:1 336:1 372:1 377:2 411:1 426:1 452:1 478:1 480:1 544:2 551:2 570:2 598:1 611:1 614:1 649:1 727:1 752:1 760:1 802:3 815:1 878:1 964:3 1002:1 1094:1 1187:1 1438:1 1506:1 1554:1 1575:1 1628:4 1656:1 1911:1 
0 0.1072483659096922 0 0.008353533003765706 0:1 1:1 2:1 9:1 10:1 20:1 76:1 146:1 157:2 194:1 257:1 261:1 313:1 315:1 399:1 496:2 773:2 795:1 811:1 961:1 
0 0.03719853601277332 0 0 20:2 88:1 148:1 194:1 202:1 232:1 411:1 559:1 560:1 570:1 773:1 790:3 795:1 815:1 861:1 1299:1 1307:1 1726:1 
0 0.1274642056892997 0.02010994453590893 0.02181861972411524 2:1 6:1 54:1 78:1 103:1 261:1 316:1 327:1 1093:1 1155:1 1210:1 1436:1 
0 0.0139858045913226 0 0 0:2 1:1 2:2 3:1 4:2 5:1 6:1 9:1 16:1 20:1 26:2 27:1 31:1 32:2 33:1 34:1 36:1 51:1 53:1 66:1 71:2 80:5 81:2 117:1 129:1 133:2 144:1 149:1 155:2 160:1 170:1 200:1 214:1 219:1 220:1 221:1 222:1 234:2 267:1 269:1 281:1 300:2 307:1 342:1 388:1 414:1 434:1 443:1 465:1 469:1 499:1 523:1 529:1 533:1 543:1 610:1 612:1 613:1 620:1 691:1 692:1 699:2 701:1 719:1 801:1 809:1 840:1 945:1 948:1 954:1 1124:1 1129:1 1177:1 1187:1 1212:1 1218:1 1330:1 1344:1 1546:1 1606:1 1788:1 1793:1 1848:1 1921:1 1962:2 1997:1 
0.02465251282760561 0 0 0.0175198125062317 2:1 4:1 20:1 67:1 99:1 116:1 333:1 338:3 416:1 426:1 527:1 590:1 948:1 
0 0 0.04381651853389418 0 0:1 1:1 4:1 5:1 11:2 145:2 227:1 307:1 325:2 333:1 364:1 375:1 691:1 840:1 850:1 853:1 1059:1 1212:1 1677:1 
0 0.0963596670728776 0.0005558552731424024 0 0:2 1:1 2:1 5:1 7:1 8:1 11:1 20:1 99:1 185:1 595:1 
0 0.3605425872647459 0.1417493067730703 0 0:2 1:1 21:2 26:1 30:1 78:1 84:1 99:1 117:1 119:1 368:1 391:1 398:1 488:1 
0.002071600273233528 0.2089539326370538 0.0541713985233349 0 0:2 11:1 99:1 109:1 167:1 263:1 1367:1 
0.2394366304128941 0.5308333391573687 0.1808049713859226 0.0003430874555114563 7:1 9:1 80:1 99:1 230:1 1872:1 
0.01263370220792929 0.1807802114012506 0 0.006907070737269073 2:1 18:1 20:1 99:1 338:1 404:1 750:1 775:1 1035:1 1198:1 
0 0.04645853056171367 0.02963387656416648 0 2:1 4:1 5:1 9:1 28:1 40:1 62:1 99:1 125:1 126:1 134:1 185:1 463:1 503:1 620:1 691:1 749:1 750:1 853:1 1010:1 1198:1 1520:1 
0 0.09390390556467637 0 0 1:1 5:1 20:1 72:1 99:1 134:1 750:1 1198:1 1962:1 
0 0 0.02391905793939952 0.07959571904204013 11:1 24:1 26:1 52:1 99:2 691:1 
0 0.002645554633682283 0 0 11:1 26:1 27:1 75:1 99:1 113:1 355:1 825:1 1677:1 
0.098831023874093 0.14684314445946 0.1051362985598718 0.07999532295102053 2:1 9:1 149:1 185:1 213:1 255:1 597:1 1121:1 1279:1 
0 0 0.02672906837642499 0 0:3 2:4 11:1 20:2 21:1 22:1 27:1 31:1 41:1 48:2 55:1 86:2 99:3 113:1 121:2 144:1 153:1 155:1 161:1 175:1 185:1 198:1 217:1 223:1 243:3 263:1 291:1 305:1 307:1 406:1 450:1 460:1 502:1 526:1 599:1 602:2 610:1 658:1 691:2 698:3 704:1 793:1 830:1 845:1 948:2 1050:1 1076:1 1079:1 1511:1 1621:1 1658:1 1704:1 1902:1 1962:1 
0.1587820093719247 0.1265109752923031 0.2597942131265923 0.08898429454840889 1:2 2:1 5:1 12:1 14:1 40:1 57:1 74:1 111:1 120:1 282:1 664:1 704:1 1076:1 1384:1 
0.003523184669477144 0 0 0 0:1 2:2 5:1 8:1 11:2 26:1 34:1 48:1 53:1 67:1 99:1 129:1 185:1 239:1 289:1 379:1 404:1 410:1 500:1 514:1 556:1 691:1 703:1 730:1 743:1 941:1 1084:1 1330:1 1573:1 1975:1 1988:1 
0.01136588892773374 0 0.01056120954456319 0.01529142994225444 3:1 11:1 24:1 37:1 86:1 170:1 234:1 284:1 698:1 895:1 952:1 1157:1 1350:1 1384:1 1810:4 
0 0.2739735654409455 0.006138206852547528 0 5:1 33:1 205:1 683:1 729:1 915:1 1770:1 
0.01057077126233089 0 0 0.01631426554399525 11:1 21:1 26:1 99:1 167:1 
-0 0.01017790310360828 0 0.03221452077831621 0:1 3:1 6:1 18:2 46:1 65:1 77:2 110:1 128:1 173:1 257:1 260:1 267:1 347:2 386:1 387:1 498:1 545:1 582:1 645:1 784:2 808:1 1003:1 1011:1 1033:1 1301:1 1312:1 1447:1 1606:1 1638:1 1669:1 1946:1 1965:1 
-0.05974534387036715 0.05731356909764465 0.09658514452308538 0.03436413636067182 0:2 4:1 21:1 32:1 48:1 63:3 85:1 98:1 100:1 116:4 126:1 187:1 189:1 308:1 339:1 351:1 363:1 372:1 421:1 515:1 707:1 1254:1 1527:2 
-0.1216254513334919 0.1285890738857062 0.08491225434929901 0.07786042788197674 0:1 7:2 22:1 42:2 47:1 113:1 131:1 151:1 172:2 182:1 301:2 347:1 580:1 847:1 
-0.08495809786952398 0.07415469474763242 0.03026295532062686 0.1284464233019901 7:1 14:1 111:1 151:1 244:1 290:1 387:1 410:1 590:1 833:1 1434:2 1571:1 
-0.003474621552359669 0.0006347121916232503 0.002602086333619014 0 0:2 3:4 9:4 10:3 17:2 27:3 28:1 36:2 37:1 39:2 41:1 45:1 48:1 53:1 57:2 60:5 64:1 65:3 74:6 83:2 89:4 93:2 95:1 96:1 103:1 111:1 125:1 128:1 161:2 163:1 165:2 172:3 173:1 174:5 179:2 181:2 186:2 195:3 199:1 200:1 201:2 207:1 214:2 217:1 230:1 238:1 241:1 260:1 266:1 279:2 298:1 320:2 329:1 330:1 333:1 361:2 374:1 377:1 390:2 405:2 424:1 430:1 437:1 439:3 449:1 456:1 465:3 492:1 498:1 518:1 524:1 544:1 548:1 556:1 559:5 628:1 639:4 647:1 652:1 673:2 685:2 687:2 725:1 726:1 738:1 789:1 811:1 824:1 843:6 853:2 857:1 865:1 916:1 1002:1 1018:1 1030:1 1044:2 1050:1 1154:1 1159:1 1162:1 1174:1 1177:1 1191:1 1226:1 1227:1 1239:1 1263:3 1300:1 1329:1 1337:1 1367:1 1375:1 1377:1 1380:1 1391:1 1419:1 1448:1 1481:1 1537:6 1576:3 1610:1 1689:1 1715:1 1739:1 1822:2 1825:2 1842:2 1870:1 1984:1 
-1 1 1 1 
-0.1151587184076754 0.161565537947279 0.1249257038602242 0.0618060313284879 8:1 22:1 31:1 180:1 222:1 267:1 456:1 881:1 1112:1 1474:1 1554:1 
-0 0.01189688062983188 0.01312937339284757 0 0:3 1:1 2:1 3:1 4:3 5:2 6:1 8:1 9:1 12:1 14:1 15:6 17:1 18:1 19:1 22:1 23:4 24:1 25:1 28:3 31:1 38:1 40:1 44:1 49:1 51:2 53:1 57:2 67:2 71:1 82:3 83:2 86:1 89:2 92:4 95:1 102:1 106:1 109:4 131:1 132:5 133:1 135:1 140:1 143:3 147:3 153:1 155:1 156:1 177:1 182:1 185:1 201:1 202:1 207:1 208:1 232:1 235:5 241:1 244:2 257:1 258:1 262:1 267:2 268:2 270:2 271:1 284:2 285:1 299:1 300:1 312:1 326:6 329:4 361:2 364:1 368:1 378:1 384:1 390:1 409:1 417:1 441:1 452:1 454:1 462:1 510:1 511:1 538:1 562:1 564:1 580:1 595:1 602:1 609:1 618:1 623:1 627:1 630:1 633:1 644:1 647:1 648:1 652:1 671:1 677:1 685:1 705:1 706:1 713:1 715:1 719:3 736:4 765:3 777:1 826:2 853:1 860:2 888:1 892:1 898:1 904:1 925:1 957:2 974:1 1002:1 1009:1 1027:1 1042:1 1117:1 1144:1 1208:1 1270:1 1282:2 1301:2 1306:1 1336:1 1364:2 1373:1 1399:1 1409:1 1419:1 1486:1 1492:1 1505:1 1514:1 1521:1 1549:1 1567:1 1592:1 1598:1 1601:1 1614:1 1637:1 1649:1 1656:1 1705:1 1784:1 1800:1 1831:1 1847:1 1855:1 1865:1 1880:1 1963:1 
-0.003500448318817662 0.01001867340191268 0 0.01636425719913595 2:2 3:1 4:1 6:1 7:1 8:2 14:1 21:1 23:1 31:1 32:1 47:1 59:1 71:1 73:1 88:1 90:1 93:1 96:1 131:2 155:1 180:1 205:1 212:1 252:1 264:1 279:5 308:1 310:1 406:2 452:1 545:1 597:1 619:1 627:1 640:1 646:1 652:1 711:1 770:1 778:1 817:1 981:1 1038:1 1082:1 1142:4 1213:1 1263:1 1319:1 1372:1 1580:5 1999:1 
-0.1208912466023893 0.2322426108444273 0.1632364616839455 0.1456728499214363 0:1 1:2 127:1 142:2 210:1 220:1 437:1 484:1 689:1 
-0 0 0 0.04278323962816431 0:1 1:3 2:2 3:3 4:2 6:1 9:1 12:2 14:1 16:1 37:1 51:1 66:2 70:1 135:1 140:1 142:1 143:1 172:2 221:1 222:1 278:1 320:1 326:1 352:1 354:1 377:1 427:1 434:1 455:1 464:1 558:1 592:1 665:1 673:1 687:1 744:1 768:1 837:1 930:1 937:1 1011:1 1038:1 1054:1 1079:1 1130:1 1188:2 1248:1 1470:1 1627:1 1745:1 1835:1 1931:1 
-0.03532535310286519 0.01344037654290171 0.01564867363743884 0.007876039787430738 4:1 17:2 35:1 39:1 57:1 74:1 110:1 111:1 155:1 156:2 199:1 232:1 296:1 297:1 424:1 430:1 459:1 579:1 626:6 687:1 814:1 936:1 1049:1 1091:1 1131:1 1181:1 1555:1 1602:3 1616:1 1648:1 1678:1 1834:1 1921:1 1977:2 
-0.004868650232453958 0.004761531631274999 0.008188791274318019 0.009352478775213077 0:3 3:4 6:1 8:2 10:1 12:1 14:1 19:1 24:1 25:1 29:2 30:1 31:2 32:1 34:5 35:1 36:1 37:1 39:2 41:1 42:1 43:1 46:4 49:1 51:2 55:1 57:2 64:2 70:1 76:1 78:1 79:3 83:2 85:4 86:1 87:9 88:1 100:1 102:1 115:2 135:1 150:1 163:4 164:1 174:1 178:1 179:1 189:3 194:1 197:1 198:1 202:1 211:1 215:1 225:1 243:1 244:1 255:1 264:1 278:1 279:1 284:2 297:1 298:2 300:2 304:1 322:2 323:2 327:3 342:1 352:1 355:2 361:3 364:1 406:1 410:1 417:5 418:1 423:2 458:1 479:1 494:2 507:1 515:1 530:2 555:1 576:2 584:1 586:1 590:1 602:1 617:2 630:1 653:1 654:1 655:1 665:1 677:1 681:4 695:1 702:1 706:1 726:1 735:2 748:2 751:1 771:1 821:1 832:1 834:1 871:1 878:1 902:1 918:1 949:1 965:1 966:1 1050:1 1055:1 1148:1 1154:1 1204:1 1339:1 1342:1 1365:1 1479:1 1518:1 1586:1 1594:1 1606:1 1685:1 1700:1 1749:4 1816:1 1846:1 
-0.04221837331033678 0.03840404759673247 0.0139228649808271 0.0267492996811257 2:1 4:1 14:1 19:1 32:1 34:1 35:1 37:1 39:1 89:1 104:1 113:1 160:1 197:1 203:1 209:1 212:1 252:1 507:1 599:1 634:1 702:1 735:1 1207:1 1507:2 1657:1 1895:1 1952:3 
-0.03721507043654775 0.1411365066792812 0.007590071694355272 0.04729852080691555 0:1 2:2 3:1 7:1 8:2 9:1 16:1 23:1 69:1 132:1 276:1 294:2 300:1 352:1 418:1 465:1 628:1 873:1 
-0.02307357127942322 0.04710601079584716 0.0544578726255228 0.0471857179647239 2:1 7:1 17:1 21:1 30:1 32:1 37:1 47:1 63:1 68:1 70:1 104:1 179:1 216:1 241:1 257:1 313:1 358:1 377:1 387:1 393:2 396:1 398:1 405:1 479:1 493:2 530:1 625:1 734:1 745:1 754:1 757:1 
-0.01022861675674872 0.02961816418081577 0.02212952682266365 0.03910118730572812 1:1 8:1 10:1 14:1 17:1 42:2 54:1 61:1 66:1 69:1 71:1 84:1 99:1 105:1 118:1 129:1 137:1 174:1 175:1 181:1 265:1 266:1 271:2 376:1 422:1 435:1 454:1 500:1 614:1 677:1 717:1 750:2 807:1 837:1 952:1 986:1 1450:1 1584:1 1597:1 1874:1 1928:3 
-0 0.004768129765139506 0.06009554316432254 0 0:1 2:1 4:1 7:1 21:1 55:1 60:1 64:1 77:1 94:1 99:2 136:1 186:1 200:2 455:1 460:3 471:1 673:1 828:1 858:1 1083:2 1450:1 1611:1 1834:1 
-0.09552230617881952 0.2058004973750807 0.1638026946686314 0.05769695558586646 4:1 20:1 54:1 58:1 59:1 99:1 141:1 379:1 460:2 604:1 781:1 1206:1 1737:1 
-0.1227600765854982 0.1594133351474514 0.2400929052824932 0.08618440450678003 33:1 221:1 340:1 400:1 460:2 538:1 771:1 991:1 
-0.00758393772436431 0.007277626398115504 0 0.04658785280995635 2:1 6:1 16:2 18:1 21:1 24:2 35:1 40:1 55:1 58:1 60:1 81:1 95:2 99:1 104:1 148:1 158:1 160:2 166:1 187:1 234:1 246:1 247:2 264:1 276:1 289:1 328:1 334:1 340:1 371:1 552:1 814:2 841:1 858:1 869:1 1030:1 1105:1 1182:1 1295:1 1936:1 
-0.01368899804083993 0.0175581376507089 0.002565218518303896 0.02679281128828534 3:1 6:1 7:2 9:1 16:1 22:2 36:1 42:2 47:1 77:1 86:1 94:1 125:1 131:1 146:1 157:1 193:3 201:1 219:1 225:1 234:2 239:1 241:3 265:2 266:2 267:1 275:1 285:1 313:1 354:1 375:1 436:1 439:1 533:1 671:1 687:1 768:1 769:1 874:2 997:1 1130:1 1172:1 1218:1 1286:2 1322:1 1419:1 1963:1 
-0.03162968242402807 0.05967648060617177 0.03844535083285505 0 0:2 10:2 11:1 22:4 27:1 40:1 43:1 54:2 62:2 69:1 78:1 86:1 93:1 95:1 96:3 103:1 104:1 108:2 128:1 141:1 234:1 282:1 288:1 289:1 291:1 295:2 314:1 317:3 349:1 383:1 386:1 392:1 473:1 514:2 577:1 582:1 605:1 614:1 658:1 683:1 814:1 828:1 845:1 862:1 870:1 905:1 1004:1 1043:1 1100:1 1201:1 1214:4 1288:1 1295:1 1313:1 1334:3 
-0.1186643763674845 0.1032010377271426 0.08366430010146024 0.05231531712480288 11:1 91:1 94:1 118:1 123:1 138:1 164:1 213:1 218:1 245:1 259:1 357:1 427:1 455:1 539:1 945:1 1570:1 1771:1 
-0.003383822365850876 0 0.08401431143476477 0.08369906023151659 4:1 7:2 17:1 27:1 31:1 58:2 61:1 109:1 113:1 122:1 123:1 138:2 143:1 208:1 218:2 220:1 280:1 357:1 371:1 381:2 405:1 443:1 539:2 547:1 640:1 657:1 1426:1 
-0.03716152291619985 0.1013084165846398 0.1379291144331422 0 0:3 4:1 12:1 14:1 19:1 42:1 44:1 51:1 71:2 81:1 84:1 107:1 125:1 223:2 273:1 280:1 346:1 363:2 446:1 455:1 467:1 737:1 937:1 952:1 999:1 1618:1 1734:1 
-0 0 0.0390413627953694 0.06695770248807284 1:1 2:1 3:1 10:1 42:1 45:1 87:1 89:1 101:1 172:1 212:2 301:1 311:1 1675:1 1785:1 1974:1 
-0.05229413482103763 0.05602935028113409 0.06496890506099999 0.05106963948167698 0:1 2:3 21:1 60:1 77:1 101:1 107:1 112:1 128:1 138:1 166:1 221:1 243:1 259:1 287:1 291:1 649:1 1017:1 1077:1 1185:1 1320:1 1707:1 1778:2 1878:1 
-0.05263898539125441 0.1495707366922314 0.05524382779095693 0.009918514055866719 0:1 1:1 2:1 4:2 8:3 9:2 18:1 19:1 35:1 36:1 65:1 111:1 221:1 259:1 291:1 297:1 323:1 599:1 710:1 812:1 849:1 853:1 1101:1 1301:1 
-0.03902994815628191 0.05335652196672953 0.08434400381264262 0.08229753915289589 1:1 8:1 10:1 12:1 15:1 19:1 25:2 81:1 98:1 112:1 123:1 169:1 186:1 212:1 308:1 380:1 413:1 557:1 652:1 1021:1 1464:2 
-0.1105200862073743 0.1283318349333843 0.0630512843170562 0.08445366624996679 4:1 22:1 24:1 155:1 358:1 603:1 1364:1 1435:1 
-0.08460929105004082 0.1231039289438998 0.08927406383504435 0.07136180375619386 23:1 24:1 26:1 41:1 48:1 73:2 121:1 175:1 229:2 273:1 434:1 450:2 515:1 523:1 670:1 1056:1 1884:1 1971:1 
-0 0 0 0.005725482444818688 2:4 6:1 10:1 16:1 23:1 27:1 29:1 48:2 73:2 75:1 140:1 161:1 168:1 229:4 232:2 273:3 296:1 311:1 319:1 358:2 420:2 427:1 436:1 437:1 470:1 487:1 542:1 658:1 670:1 757:1 782:1 817:1 934:2 971:1 979:1 1141:1 1467:1 1607:1 1935:2 
-0.01467672910011914 0.01497849029418631 0.008349859632588547 0.005296674144470266 0:3 2:1 3:1 4:1 6:2 24:1 35:1 37:1 39:1 43:1 44:1 53:1 60:1 64:1 65:1 66:1 71:1 74:1 93:1 95:1 96:2 101:1 102:1 110:1 112:1 128:1 130:1 133:1 139:5 155:3 161:1 175:1 190:1 191:1 195:1 201:1 202:1 255:1 260:1 263:2 272:1 304:3 315:1 332:1 346:2 347:1 367:2 369:1 402:1 480:2 492:1 524:1 525:1 548:2 630:1 634:1 636:1 649:1 659:1 726:1 742:4 745:1 752:2 777:2 789:2 835:1 877:1 943:1 1027:1 1062:1 1119:1 1150:2 1152:1 1161:1 1174:2 1288:1 1338:1 1375:1 1415:1 1480:1 1634:1 1668:1 1681:1 1863:1 1912:1 1970:1 
-0.008999357229394574 0.03518804128272104 0.01773564638039737 0 0:2 1:3 2:1 8:1 11:2 12:1 13:2 14:1 15:1 16:1 21:1 27:1 28:1 29:1 32:1 44:1 56:1 72:1 77:1 78:1 86:1 140:1 160:1 169:1 222:1 226:1 234:1 264:1 282:1 292:1 294:1 321:1 338:1 376:1 412:1 421:1 433:1 583:1 623:1 657:1 709:1 775:1 886:1 1076:1 1107:1 1665:1 
-0.01913866431570183 0.04629701363156851 0.0464290517235198 0.004031044156763415 0:4 1:2 2:3 5:1 6:1 7:1 8:1 15:2 17:1 18:1 23:1 28:1 29:1 35:1 38:1 41:2 43:1 48:1 50:1 62:1 64:1 65:1 66:1 86:1 94:1 107:1 115:1 121:2 123:1 133:1 134:1 162:1 190:1 196:1 201:1 207:1 211:1 213:2 233:1 264:1 278:1 283:1 296:1 311:1 329:1 351:1 370:1 384:1 412:1 418:1 420:1 488:1 500:1 505:1 581:1 586:1 612:1 630:1 647:1 777:1 1013:1 1065:2 1067:1 1099:1 1146:1 1215:1 1253:1 1321:1 1339:1 1372:1 1385:1 1464:2 1565:1 1882:3 1899:1 
-0 0.006728154651567808 0.009214198173505371 0.008503870969896753 1:2 4:1 8:2 9:1 12:1 17:1 25:1 27:2 31:1 46:1 52:1 60:1 69:3 70:1 76:1 110:1 114:5 133:1 166:1 175:1 177:1 224:1 225:1 231:1 247:1 251:1 298:1 309:1 346:1 453:1 468:1 507:1 508:1 516:3 580:1 584:1 596:1 850:1 880:1 942:1 950:1 962:1 963:1 1002:1 1217:1 1285:1 1291:1 1662:1 1721:1 1768:1 
-0.001322792887351408 0.0270266473856277 0.05777991508773254 0.01529971312523319 0:2 3:1 4:3 6:1 14:2 17:1 22:1 23:1 28:1 30:2 34:1 35:1 40:1 52:1 54:1 55:1 56:3 92:2 93:1 114:1 138:2 147:2 160:1 185:1 186:1 244:1 278:1 288:1 392:1 423:1 442:1 444:2 451:1 499:1 531:1 598:1 655:1 861:2 868:1 877:1 977:1 1063:1 1083:1 1134:1 1168:1 1366:1 1420:1 1489:1 1518:1 1628:1 1649:1 1676:1 1955:1 1987:1 
-0.01205591232204238 0.04370367419042061 0.02577015343279516 0.0003921342296724549 1:1 2:1 3:1 4:1 6:1 15:1 23:2 24:1 34:1 41:1 49:1 56:1 66:1 75:1 107:1 114:4 119:1 136:1 141:2 182:1 198:1 208:1 231:1 233:1 255:1 310:1 329:1 330:2 357:1 368:1 393:1 398:1 407:2 408:1 530:1 567:1 623:1 1134:1 1246:1 1374:1 1457:1 1518:1 1746:2 
-0 0 0 0.01110461817876214 0:1 1:3 2:4 4:1 6:3 7:2 10:1 14:1 15:2 16:4 17:2 27:1 30:1 36:1 43:1 45:2 46:1 48:2 51:1 52:1 54:1 55:1 56:1 57:2 59:6 64:1 68:1 73:1 74:3 75:1 82:2 83:2 86:1 90:2 91:2 94:1 101:2 102:1 103:1 114:5 125:1 127:1 128:1 130:1 137:2 146:1 151:1 160:4 166:2 168:2 171:1 172:1 177:1 178:1 187:1 189:1 191:1 193:1 225:1 231:1 239:1 254:4 260:1 263:1 264:1 300:1 304:1 313:1 320:1 324:2 330:4 378:1 383:3 386:1 397:1 402:1 407:4 422:1 469:2 540:1 558:1 615:2 642:3 666:1 693:1 728:1 729:1 738:1 744:1 853:1 879:1 903:1 909:1 950:1 1031:1 1055:1 1096:2 1154:1 1168:1 1191:1 1381:1 1451:1 1628:1 1640:2 1650:2 1664:1 1732:1 1747:1 1772:3 1799:1 1893:1 1913:1 
-0 0 0 0.02641952060938206 0:1 1:5 2:1 3:1 6:3 7:1 8:1 10:1 12:1 16:1 17:1 28:2 30:1 35:1 36:5 39:1 40:1 50:1 53:1 54:3 59:1 61:3 71:1 74:1 83:2 86:1 90:3 103:1 111:1 114:2 118:1 127:1 130:1 141:1 148:1 149:1 153:1 163:1 172:2 174:2 180:1 181:1 191:1 228:1 233:1 248:1 252:1 254:2 264:1 265:1 269:1 289:1 290:1 297:2 298:2 304:1 323:1 330:2 374:1 384:1 386:1 387:1 407:2 416:1 417:1 431:1 433:1 467:1 488:1 499:1 508:1 544:1 627:1 629:2 642:1 672:1 725:2 787:1 804:1 825:1 876:2 916:1 951:1 953:1 992:1 1056:1 1078:1 1200:1 1305:4 1341:1 1632:1 1689:1 1860:1 1880:1 1897:1 
-0 0 0 0.01654746781128895 2:1 3:1 4:1 7:1 10:1 16:1 18:2 23:1 32:2 35:1 38:1 42:1 43:2 45:1 51:1 64:1 65:1 71:3 74:1 77:2 89:2 90:1 96:1 113:2 140:2 155:1 168:2 172:1 174:1 177:2 182:1 193:4 200:1 228:1 233:4 240:1 251:1 269:1 274:1 278:1 306:1 311:1 316:2 352:1 358:1 374:1 402:1 439:1 445:2 470:1 471:1 508:3 516:1 541:1 717:2 751:1 757:1 778:1 809:1 825:1 828:1 874:2 895:1 932:1 971:1 976:2 992:1 1011:1 1068:1 1077:1 1094:1 1207:1 1292:1 1322:1 1480:1 1647:2 1674:1 1735:1 
-0 0 0.008315005260426384 0 0:2 1:1 2:1 3:2 4:2 5:1 6:1 8:3 11:1 17:1 19:1 23:5 25:1 27:1 29:2 30:1 39:1 42:1 46:3 47:1 50:1 51:1 54:2 57:1 60:1 66:1 83:1 93:2 96:1 102:2 106:1 114:1 125:1 127:1 133:1 143:1 148:1 155:1 157:2 159:1 166:1 171:1 174:2 191:1 198:1 201:1 220:1 241:2 260:1 272:1 276:1 291:1 294:1 300:1 323:1 350:1 354:1 373:1 397:1 415:1 445:1 464:1 469:1 471:1 478:2 516:3 541:1 564:1 589:1 615:1 618:1 624:1 636:1 662:1 728:1 778:2 932:1 971:1 1031:1 1037:1 1056:1 1069:1 1171:1 1261:1 1309:1 1322:1 1324:1 1492:1 1791:1 1878:1 1896:1 1997:1 
-0.01283814631825222 0.006160073086759888 0.02372432273306259 0 6:1 16:1 17:1 20:1 32:1 46:2 48:2 73:2 75:1 114:8 117:1 119:1 122:1 140:2 141:1 185:1 212:1 248:4 254:1 267:1 358:1 427:1 477:1 498:1 516:2 567:1 695:1 757:1 935:1 1030:1 1200:1 1212:1 1272:1 1328:1 1344:1 1615:1 1672:1 
-0.01631647511271097 0.009939412930104058 0.01132071535962038 0 1:3 2:1 5:1 28:1 34:1 52:1 62:1 84:2 111:1 114:3 135:1 158:2 186:1 222:1 224:1 254:3 383:2 408:2 976:1 1269:1 
-0 0.01890040440759308 0 0.000160346609017326 0:1 1:4 2:1 4:1 7:1 12:1 15:1 23:1 24:2 29:1 32:3 36:1 38:2 40:1 47:1 52:1 54:1 56:1 98:1 121:1 124:1 127:1 135:1 138:1 143:1 158:1 196:1 201:1 202:1 213:2 219:1 226:1 230:1 262:2 282:2 305:1 310:1 344:1 357:1 379:1 380:1 389:1 398:1 423:1 435:1 448:1 465:1 488:1 498:1 533:1 586:1 709:2 829:1 855:1 908:1 919:1 929:1 1036:1 1061:1 1242:2 1276:1 1322:1 1600:1 1692:1 1820:1 
-0 0.01532513044417614 0 0 0:1 1:5 2:2 4:3 5:1 6:2 11:1 21:2 23:1 32:1 35:2 38:4 46:1 47:1 62:1 68:1 94:1 104:1 105:1 110:2 119:1 122:1 133:1 134:1 182:1 187:1 196:1 208:1 234:1 238:1 264:1 283:1 287:1 320:1 370:1 374:1 386:1 387:1 412:1 426:1 443:1 596:1 731:1 746:1 808:2 825:1 845:1 932:1 949:2 984:1 1079:1 1290:1 1292:1 1321:1 1339:1 1540:2 1684:1 1745:1 1982:1 1993:1 
-0.03640905535838443 0.04479619051598828 0.02937365015303459 0.02243090543859015 1:2 4:2 21:1 31:1 47:1 105:1 115:1 136:1 197:1 268:1 270:1 612:1 692:1 746:1 837:1 1025:1 1231:1 1359:1 1401:1 1955:1 
-0.01105884668727073 0.06440660341035617 0.1232230748528861 0.001942304518846913 0:2 1:2 3:2 7:3 8:1 9:1 12:1 17:1 21:1 27:2 29:1 32:1 38:2 44:1 57:1 65:1 68:1 89:1 94:1 105:3 111:1 113:1 121:1 148:1 156:1 196:1 202:1 220:1 222:1 232:1 239:1 242:1 246:1 264:1 352:1 438:1 477:1 507:1 518:1 589:1 610:1 760:1 814:1 834:1 844:1 1105:1 1124:1 1203:1 1270:1 1642:1 1730:1 1806:1 
-0.3245578805499869 0.3268736391593337 1 0.304246632187583 1:1 222:1 311:1 805:1 
-0 0.01566292699147148 0.09586677196372347 0 0:2 1:1 3:1 4:1 8:1 13:1 21:1 25:1 38:1 59:1 68:1 78:1 95:1 105:1 107:1 110:1 126:1 136:1 159:1 196:2 201:1 282:1 357:1 379:1 413:1 433:1 442:1 531:1 602:1 612:1 678:3 949:1 1624:2 1900:1 1980:1 
-0.0139182816938838 0.02064043232625372 0 0.0003824746194300962 1:1 2:3 3:1 9:2 10:1 11:2 16:1 17:1 19:1 21:1 23:1 29:1 35:1 37:1 39:1 43:1 44:1 49:1 52:1 54:1 57:1 60:1 72:1 73:1 79:1 83:2 89:1 97:1 98:1 102:1 103:1 104:3 107:3 108:1 119:1 161:1 171:1 189:1 197:1 201:1 219:1 222:1 239:1 243:1 244:1 280:1 286:2 287:1 291:1 302:1 304:1 323:1 352:1 378:3 435:1 472:4 481:1 506:1 513:1 518:1 528:2 562:1 612:1 636:1 665:1 674:1 715:1 737:3 749:1 792:1 832:2 853:1 856:1 857:1 900:1 918:1 963:1 967:1 1017:2 1078:1 1169:1 1179:2 1204:1 1275:1 1342:1 1365:1 1486:1 1572:1 1578:1 1679:1 1722:1 1744:1 1820:1 1872:1 1925:1 1938:1 1994:1 
-0 0.007635176212734085 0.01301998023895094 0.004905245062428835 0:2 1:2 2:1 3:4 6:2 7:1 8:1 9:2 11:1 12:1 13:1 14:1 15:2 16:1 17:1 20:1 21:1 23:2 28:1 29:1 31:1 36:1 40:1 42:1 43:1 52:2 56:1 57:1 58:1 59:1 74:1 85:4 86:1 89:1 98:1 102:1 105:1 125:1 127:1 128:2 136:1 141:1 148:1 158:1 159:1 166:1 174:1 179:1 184:1 189:1 194:1 196:1 198:1 215:1 216:2 257:1 266:2 293:1 303:2 338:1 352:1 381:1 388:1 397:1 406:1 413:1 438:1 446:1 459:1 461:1 504:1 515:2 541:1 544:1 564:1 581:2 621:1 627:1 659:1 699:1 742:1 797:1 798:2 813:2 859:1 898:1 899:1 903:4 904:1 907:1 920:1 942:1 965:1 979:1 984:1 1009:1 1019:1 1056:1 1073:1 1127:1 1143:1 1166:1 1196:1 1246:1 1261:1 1290:2 1304:2 1307:1 1310:1 1319:1 1558:1 1603:1 1747:1 1869:1 1888:1 1973:1 
-0.00766944272498355 0.08984357921562969 0.02872994046906605 0.007377623794737064 0:1 1:2 3:1 4:1 7:1 13:1 26:1 35:1 38:2 42:1 45:1 46:1 50:1 59:1 71:1 76:1 79:1 98:1 105:1 119:1 136:1 149:1 150:1 196:1 248:1 408:1 482:1 543:1 647:1 689:1 746:1 759:1 866:1 980:1 1092:1 1156:1 1958:1 
-0 0.001738383147502731 0.04002099254137272 0 0:1 1:1 32:1 34:1 38:1 60:1 110:1 136:1 154:2 156:1 197:1 206:1 238:1 253:1 262:1 290:1 331:1 444:1 606:1 628:1 650:1 699:1 749:1 777:1 782:1 1159:1 1593:1 
-0 0 0 0.01688604468931819 1:3 2:1 3:1 4:1 6:1 11:1 17:1 23:1 24:2 34:2 37:1 52:1 55:1 87:2 89:1 108:1 149:1 175:1 182:1 189:1 203:2 220:1 228:1 237:1 242:1 266:1 276:1 322:1 332:1 343:1 366:2 408:3 417:1 438:2 468:1 548:1 587:1 601:3 636:1 666:1 760:1 786:1 812:1 842:1 863:1 876:1 884:1 960:1 1084:1 1167:2 1323:2 1430:1 1553:1 1565:1 1644:1 1747:1 1871:3 
-0 0 0.0137022504291277 0 0:1 1:6 2:1 3:3 6:2 10:2 11:2 12:2 14:2 16:1 19:1 27:1 28:1 29:1 30:2 31:1 32:1 34:4 36:1 37:3 38:1 46:1 48:1 51:2 52:1 57:2 59:1 60:1 63:1 65:1 66:1 76:1 78:1 81:1 82:3 86:2 92:2 94:1 98:1 104:6 110:1 111:1 122:1 133:1 135:2 139:3 141:1 156:1 158:2 161:1 164:1 171:1 173:2 174:1 178:1 184:2 197:1 201:1 209:1 210:1 231:1 235:2 240:3 242:3 258:1 276:1 296:2 302:2 310:1 312:1 318:1 321:1 322:1 324:1 327:1 328:1 343:1 348:1 352:1 353:1 355:1 365:1 393:1 395:2 397:1 399:1 413:1 438:1 443:1 454:1 461:1 524:1 527:2 535:1 541:1 542:1 544:1 561:1 584:1 627:2 632:2 639:1 648:1 658:1 686:1 754:1 780:1 791:1 792:1 864:2 873:1 907:1 964:1 996:1 999:1 1002:1 1051:1 1098:1 1126:1 1192:1 1236:1 1282:2 1318:1 1321:1 1400:1 1409:1 1431:1 1432:1 1438:1 1471:1 1549:1 1558:1 1586:1 1616:1 1659:2 1685:1 1727:1 1747:1 1827:1 1990:1 1996:1 
-0.006751530335229948 0.01028195482440839 0.03443927397013465 0.03167812542504216 0:1 1:1 2:1 7:1 10:1 12:1 15:6 30:1 32:1 52:1 90:1 92:1 100:2 112:1 171:1 206:1 211:1 215:1 239:1 300:1 341:1 454:1 540:1 657:1 677:1 772:1 877:1 888:1 1076:1 1289:1 1327:1 1374:2 1990:1 
-0.01467546767285381 0.01650725036879172 0.06182737796159841 0.00647363617742444 2:2 4:3 22:1 31:1 55:1 76:1 104:1 136:1 145:1 150:1 160:1 182:1 266:1 279:1 317:1 371:1 483:1 541:1 655:1 776:1 816:2 863:1 882:1 983:1 997:1 1260:1 1288:1 1346:1 1399:1 1427:1 1700:1 1939:1 1958:2 
-0 0.01450085183247147 0.002315052182515297 0 0:4 1:1 2:1 3:1 4:1 7:2 8:1 9:1 11:1 12:1 14:5 15:1 19:2 21:5 23:3 24:1 25:1 32:1 33:2 34:1 36:1 37:2 39:1 47:2 50:1 52:1 55:1 56:3 60:1 71:2 75:1 83:1 95:1 101:1 116:1 118:1 121:1 127:1 128:1 130:1 135:1 138:1 143:2 156:3 161:1 179:1 187:1 192:1 201:1 212:4 230:1 231:1 245:1 262:2 269:1 282:1 295:2 299:1 300:1 310:1 314:1 324:1 371:1 379:1 389:1 391:1 404:3 410:3 421:1 437:1 446:1 482:1 485:1 488:1 491:1 510:1 538:1 549:1 581:1 589:3 590:1 603:1 649:1 728:1 743:1 750:1 751:1 754:1 800:1 827:1 937:1 1000:2 1053:1 1104:1 1217:1 1232:1 1268:1 1306:1 1331:1 1358:1 1368:1 1404:1 1480:1 1494:1 1508:1 1510:1 1527:1 1556:1 1641:1 1644:1 1658:1 1673:1 1697:3 1762:1 1849:1 1973:2 1986:3 1990:1 1995:1 
-0 0 0 0.0119763655637612 1:8 2:2 4:1 8:1 10:3 12:1 14:3 17:1 18:1 24:1 30:1 31:1 36:1 39:1 42:7 44:1 46:1 50:1 51:1 52:2 57:1 59:1 61:5 72:1 74:1 94:1 96:1 107:1 118:1 149:1 157:1 158:1 163:1 173:1 174:2 181:2 188:1 198:1 202:1 215:1 228:1 230:1 240:2 244:1 247:1 265:1 280:1 283:1 284:1 293:1 318:1 366:1 371:3 381:1 389:1 403:1 410:2 446:1 449:1 462:1 485:1 509:1 531:1 540:1 548:2 567:1 577:1 590:2 659:1 681:1 758:1 760:1 800:1 804:1 832:1 887:1 898:1 1057:1 1124:1 1138:1 1167:1 1175:1 1315:1 1367:1 1372:2 1492:1 1830:2 1998:1 
-0.006024827320424504 0.01847130882333188 0.01148626964697239 0.01862475217885062 0:2 1:2 2:7 3:2 4:4 5:1 7:2 9:1 11:1 12:1 20:2 23:1 24:1 31:1 32:1 35:1 38:1 41:1 43:3 46:1 47:1 50:1 53:1 63:1 87:1 100:1 121:1 135:1 140:2 163:1 173:1 178:1 189:1 198:2 223:1 241:1 262:1 265:1 269:1 314:1 320:1 321:1 384:1 390:1 406:1 427:1 431:1 445:2 496:1 506:1 507:1 519:1 533:1 547:2 557:1 577:1 580:1 643:1 761:1 774:1 887:1 952:1 959:1 971:1 1007:1 1026:1 1222:1 1242:1 1251:1 1309:1 1337:1 1345:1 1426:1 1528:1 1615:2 1690:1 1808:1 1860:1 
-0 0.0007887740242620176 0 0 1:4 5:1 6:1 7:1 9:1 10:4 12:1 14:2 17:2 18:2 20:1 23:5 26:1 27:1 30:1 31:1 35:1 42:1 43:1 45:1 48:1 51:1 52:4 55:1 58:1 59:1 65:1 71:1 78:2 87:3 88:3 89:1 90:3 96:1 97:3 111:1 127:1 160:1 199:2 216:2 217:1 223:1 225:1 230:1 239:1 242:2 257:1 267:1 304:1 334:1 347:1 353:1 392:2 416:1 419:1 454:1 459:1 485:2 488:1 531:1 545:1 569:2 613:1 628:1 659:1 685:1 688:2 730:1 778:1 806:1 866:1 918:1 940:1 949:1 967:1 969:1 1337:1 1594:1 1692:1 1721:1 1768:2 1833:1 1957:1 
-0.2035297132816225 0.2001227626713462 0.2113659454206641 0.2052314966169207 1:1 16:1 118:1 158:1 212:1 586:1 1630:1 
-0.06303617393067061 0.1516283181411183 0.2658706637433825 0.04501026959276392 0:2 1:1 18:1 52:1 95:1 159:1 479:1 925:2 973:1 
-0 0.02440675963166471 0.03281864837926422 0.01386024716397794 2:1 3:1 4:1 16:1 23:3 28:1 42:1 45:1 46:1 57:1 76:1 82:1 83:1 106:1 121:1 148:1 168:1 172:1 174:1 187:1 212:1 266:1 278:1 323:1 328:1 366:1 456:1 505:1 510:1 599:1 623:1 662:1 688:1 703:2 777:1 822:1 894:1 1036:1 1422:1 1516:1 1519:1 1770:1 
-0 0.008038033643828131 0.03365756535614364 0 0:1 1:3 2:1 3:3 4:1 6:2 8:1 15:1 21:1 23:2 24:1 30:1 35:2 37:1 44:3 52:7 60:1 64:1 69:1 75:2 88:2 90:2 97:1 98:1 100:1 112:1 117:1 118:1 119:2 121:1 126:1 141:1 143:1 147:1 154:1 173:1 179:1 190:1 204:1 234:1 252:1 258:1 289:1 291:1 293:1 298:1 305:1 314:2 318:1 335:1 344:1 371:1 386:1 388:1 402:2 406:1 408:2 417:1 429:1 440:1 441:1 473:1 500:2 523:1 674:1 688:2 702:1 873:1 908:1 924:1 933:1 996:1 1031:1 1098:1 1318:1 1328:1 1462:1 1499:1 1528:1 1899:1 
-0.0492038409715003 0.1197326277604339 0.09016060840794446 0.03816195808136406 1:1 4:1 32:1 48:1 58:1 73:2 76:1 123:1 189:1 220:1 247:1 376:1 442:1 641:1 799:1 970:1 989:1 1369:1 1396:1 
-0 0 0 0.008415002756185699 1:3 4:2 9:1 14:2 17:1 25:1 28:2 30:1 32:1 45:1 52:1 61:3 88:2 90:1 102:1 107:2 111:1 124:1 136:1 146:1 161:1 215:1 230:1 231:1 268:2 291:1 312:1 319:1 351:1 358:1 376:1 390:1 431:1 435:1 524:1 609:1 651:1 720:1 835:1 928:1 1025:1 1064:1 1124:1 1306:2 1486:1 1655:1 1717:1 1743:1 
-0.6054401476453279 0.6991886730427121 0.5176235778623544 0.358652246247817 2:1 5:1 88:1 90:1 159:1 230:1 
-0 0 0.04075864653222659 0.006965060970651047 3:3 4:1 9:1 12:1 15:2 18:1 28:1 33:1 40:1 53:1 63:1 93:1 103:1 123:2 136:2 189:1 197:1 206:2 280:1 321:2 378:1 448:1 550:1 686:1 1046:1 1282:1 1355:1 1457:1 1552:1 1717:2 1853:1 1993:1 
-0.1231501828376619 0.06846834798237082 0.09645245631801742 0.135359039428717 1:1 3:1 12:1 115:1 153:1 200:1 222:1 321:1 373:1 588:1 995:1 
-0.07279969394222188 0.1094300779869569 0.07530607231329453 0.02652593027059659 2:1 4:1 13:3 30:1 31:1 32:1 34:1 35:1 40:1 116:1 125:1 184:1 194:1 292:1 310:1 334:1 462:1 466:1 783:1 1079:1 1271:2 1940:1 1983:1 
-0 0.05257470594889152 0.01447537059949367 0 0:2 1:2 3:2 7:1 8:3 11:1 13:6 16:1 20:1 28:1 39:1 47:1 63:1 93:1 136:2 170:1 184:2 221:1 238:1 239:2 246:1 283:1 292:1 321:1 336:1 341:1 381:1 388:1 390:1 427:1 458:1 466:2 600:1 899:1 919:1 972:1 1021:1 1036:1 1073:1 1183:1 1337:1 1340:1 1378:1 1513:1 1552:1 1676:1 1910:1 
-0 0 0.03726614437918431 0 1:1 48:1 138:1 159:2 206:1 268:1 299:1 609:1 1511:1 
-0.1266008929173994 0.1200174165863084 0.2033698756048255 0.06838389895228211 3:1 4:1 5:1 13:1 25:1 44:2 70:1 101:1 159:1 962:1 1090:1 1183:1 1910:1 
-0.01537771508577542 0.06797820544506357 0.0382577996477815 0.02122348955884633 0:1 2:1 13:3 34:1 38:2 47:1 77:3 196:1 251:1 344:1 351:1 368:1 398:1 625:1 797:2 907:1 1008:1 1075:2 1176:1 
-0.3392716481648696 0.3844317051512695 0.2736359530739352 0.3892780965335683 1:1 290:1 1488:1 1558:1 
-0.1385975760474369 0.2086783078091945 0.1859818259794807 0.1316909456364995 2:1 9:1 34:2 36:1 77:1 92:1 94:1 108:1 513:1 568:1 575:1 658:1 
-0 0 0 0.00110265123788449 0:2 1:6 2:2 3:2 4:2 8:1 11:1 14:2 15:7 16:1 17:1 19:1 25:3 26:1 28:2 31:2 32:2 36:1 42:1 43:1 46:1 47:1 49:2 51:1 52:1 57:2 59:2 61:1 63:7 64:1 74:1 75:1 76:1 83:2 84:3 87:3 88:1 89:2 93:1 116:1 124:1 130:1 131:1 133:3 142:3 147:1 150:1 155:1 156:4 157:1 163:1 174:1 175:1 177:1 180:1 181:1 190:1 192:7 199:1 212:1 215:1 221:1 223:1 226:1 231:1 235:2 238:1 240:3 243:1 250:4 253:2 263:1 270:2 272:2 299:3 305:1 310:2 313:1 321:3 369:1 382:2 384:1 390:1 399:1 418:1 434:1 456:1 479:1 481:1 509:1 524:2 531:1 537:3 547:1 569:1 618:1 619:2 648:1 659:1 663:1 684:3 689:2 708:2 720:1 724:1 762:1 771:1 808:1 860:1 864:1 888:1 897:1 954:1 963:1 985:1 1002:1 1029:1 1068:1 1076:1 1079:1 1121:3 1165:1 1193:1 1223:1 1258:1 1264:1 1300:1 1308:1 1324:1 1329:1 1380:1 1397:1 1406:1 1472:1 1500:3 1536:2 1568:1 1699:1 1759:1 1902:1 
-0 0 0.004757949156510704 0.01308426362031226 0:1 1:1 3:2 4:1 7:1 15:1 29:1 31:1 32:1 35:1 42:1 43:1 45:1 51:1 57:1 66:1 74:1 81:1 90:1 93:1 140:1 147:1 150:1 161:1 163:2 168:1 173:1 175:1 193:1 198:1 206:1 215:1 253:2 271:1 289:1 312:2 321:1 334:1 337:1 371:1 378:1 397:1 409:1 467:1 509:1 607:1 659:1 726:1 769:1 798:1 804:1 875:2 933:1 983:1 993:2 1029:1 1101:1 1116:1 1119:1 1177:1 1231:2 1540:1 1593:1 1639:1 1947:1 1978:1 1991:1 
-0 0.0405485834005961 0.03663631219712134 0.05501968553044765 7:1 15:2 59:1 61:1 72:1 99:1 104:1 142:1 192:1 205:1 206:2 240:1 251:1 253:3 262:1 270:1 271:1 310:1 327:1 341:1 404:2 409:1 540:2 613:1 648:1 654:1 664:1 698:1 798:1 853:1 855:1 890:1 991:1 1177:1 1280:1 1500:1 1526:1 1744:1 1763:1 
-0.002849475059422614 0 0 0.01100187758462618 1:1 3:1 8:1 25:1 42:1 46:3 51:1 59:2 60:4 61:2 116:1 127:1 171:2 192:2 194:1 204:1 240:1 255:1 265:1 267:1 278:1 290:1 300:1 316:1 318:2 401:1 598:1 628:1 642:1 684:1 708:1 713:1 792:1 798:1 805:1 857:1 860:1 930:1 1154:1 1265:4 1347:1 1350:1 1351:1 1352:3 1604:2 1693:1 1703:2 1984:2 
-0.01886448827671024 0.03637940271552334 0.06491680828249324 0.06463771766183256 1:1 3:1 4:1 6:1 12:1 14:1 16:1 17:1 24:1 28:2 29:1 36:1 39:1 41:1 59:1 68:1 74:1 79:1 81:1 82:1 83:2 87:3 124:1 161:1 198:1 253:3 256:1 260:1 263:1 269:1 270:1 272:2 302:2 327:1 400:1 415:1 439:1 492:1 511:1 527:1 600:1 659:1 723:1 864:1 866:1 872:1 939:2 952:1 1074:1 1340:1 1552:1 1781:2 
-0 0.001396037446937065 0 0.04781263817759453 0:1 1:1 2:1 4:1 6:1 12:1 16:1 28:1 42:1 52:1 59:2 60:1 82:1 89:3 125:1 130:1 148:1 230:1 265:1 323:1 375:1 436:1 591:1 782:1 807:1 838:1 963:1 992:1 1057:1 1393:1 1815:1 
-0 0 0 0.04324890148227906 1:5 5:1 10:2 14:3 16:1 23:2 24:1 28:3 39:1 41:1 42:1 51:1 52:5 59:1 77:1 82:1 83:1 90:1 101:1 112:1 125:1 146:1 155:1 173:1 174:2 175:1 215:1 228:1 236:1 250:1 264:1 272:2 297:1 304:1 310:1 328:1 332:1 336:1 344:1 370:1 375:1 378:1 382:1 510:1 513:1 545:1 563:1 589:1 642:1 747:1 778:1 791:1 872:1 904:1 944:1 1062:1 1226:1 1294:1 1358:2 1414:1 1925:1 1998:1 
-0.0551658904073097 0.05413640172727862 0.09205944935636592 0.07427518715174283 1:3 2:1 16:1 20:1 31:1 36:1 253:1 280:1 493:1 499:1 1166:1 1639:2 1870:1 
-0.01741044421270034 0.06471166376626021 0.06289555494099652 0.1069243880896209 0:1 1:2 3:1 7:1 8:1 10:1 14:1 37:1 50:2 64:1 83:1 111:1 132:1 153:1 201:1 224:2 225:1 244:1 252:1 441:1 649:1 706:1 763:2 856:1 1067:1 1614:1 1739:1 
-0.09746622180336383 0.1308875842777645 0.05985858530269021 0.03885475312854542 4:1 15:1 25:1 72:1 92:1 125:1 132:1 140:1 281:2 329:1 763:1 864:1 934:1 1164:1 
-0.07513947595504315 0.1469335344039204 0.1125309291837239 0.09409863143638494 4:1 59:1 67:1 182:1 281:1 295:1 485:1 546:1 625:1 742:1 756:2 
-0 0.06482566740278028 0.07659039781455527 0.06224104159017413 1:1 4:1 7:1 18:1 30:1 64:1 73:1 90:1 101:1 112:1 129:1 164:1 173:1 188:1 218:1 311:1 356:1 1438:2 
-0.002479521006635945 0.06928614118287092 0.07023225179366541 0 3:1 19:1 23:2 30:1 92:2 98:1 129:1 187:1 218:1 223:1 358:1 383:1 450:1 606:1 622:1 911:2 
-0.006605441753616484 0.001480313634159451 0.02242655898324742 0.003124985626574016 3:2 6:1 22:1 37:1 43:1 47:1 48:1 55:1 96:1 118:1 141:2 159:1 211:1 259:1 288:1 340:2 469:2 523:1 543:1 639:2 683:1 779:1 873:1 945:1 946:3 1136:4 1211:3 1408:2 1442:1 
-0.05758210771566324 0.078426551025796 0.03315674731904276 0.01150575125595438 0:1 9:1 12:1 28:1 33:1 61:1 69:1 72:1 91:1 110:1 116:1 190:1 272:1 276:1 299:2 305:1 331:1 397:1 437:1 448:1 467:1 536:1 662:1 680:1 714:1 772:1 825:1 1025:1 1186:1 1383:1 1475:1 1496:2 1503:1 1525:1 1632:1 1652:1 1690:1 1719:1 1916:1 1920:1 1922:1 
-0.527944822202283 0.5317867500720673 0.5099695583656616 0.3099622339281615 5:1 7:1 185:1 206:1 587:1 1371:1 
-0 0 0 0.01684751392539851 1:2 6:1 7:1 12:4 14:2 16:1 17:2 18:2 23:3 27:3 30:2 42:1 45:1 46:1 54:2 57:1 71:1 74:1 79:1 83:2 93:1 98:1 112:2 113:1 116:1 121:2 153:1 160:1 163:1 174:1 189:3 190:1 203:1 217:1 223:1 258:1 284:2 290:1 294:1 304:1 319:1 326:1 359:1 412:1 433:1 530:1 589:4 592:3 654:2 878:1 888:1 924:1 933:1 992:1 1004:1 1085:1 1393:2 1514:1 1534:1 1668:1 1678:1 1781:1 1809:1 1893:1 1920:1 1950:1 
-0.02928500768237484 0.06294825054074714 0.09297510785158802 0.02231692212519077 4:1 7:1 24:1 33:1 41:1 69:1 79:2 87:1 175:1 191:1 241:1 280:1 286:1 290:1 448:1 507:1 726:1 835:1 1156:1 1224:1 1342:1 
-0.05103696512768605 0.07301710239410399 0.07038927822208539 0 0:2 1:1 5:1 7:1 11:1 43:1 159:1 192:1 206:1 266:1 280:1 299:1 331:1 345:1 378:1 536:1 929:1 1503:1 
-0.04308705722937839 0.04420875707106979 0.04258984210660484 0.02785011553667541 7:1 16:1 21:1 22:2 131:2 151:1 164:1 166:1 187:1 203:1 243:1 285:1 287:1 294:1 317:1 340:1 353:1 428:1 470:1 477:1 568:1 628:1 679:1 683:2 857:1 951:1 1037:1 1058:1 1199:1 1203:1 1252:1 1296:1 1302:2 1474:1 
-0 0 0.03465812481902793 0 0:1 2:1 4:1 22:1 26:1 47:2 55:1 62:1 67:1 81:1 136:1 187:1 199:1 222:2 258:1 276:1 289:1 310:1 349:1 352:1 419:1 605:4 744:1 905:1 1117:1 1198:1 1661:2 1790:1 1797:1 1885:1 
-0.02381321715591118 0.05496036514493778 0.05446381374090279 0.01858989636366168 0:1 3:1 8:1 9:1 18:1 22:1 26:1 27:1 39:1 58:4 62:1 76:1 78:2 95:1 128:1 150:2 151:1 199:1 202:1 205:2 236:1 247:1 286:1 293:1 317:1 334:2 349:1 381:1 419:1 529:1 545:1 613:1 614:1 628:1 682:1 909:1 991:1 1084:1 1096:1 1168:1 1198:1 1505:1 1614:1 1710:1 1766:1 1790:2 1956:4 
-0.004213616161559069 0.00333336173588984 0 0 0:2 3:1 4:2 5:2 9:2 10:1 16:1 23:1 26:2 27:1 35:4 36:1 39:1 41:1 42:1 55:1 57:1 60:1 62:1 67:1 71:1 80:1 89:1 94:1 102:1 118:1 125:1 130:1 144:8 145:1 159:1 165:3 174:1 181:1 187:1 190:1 199:2 203:1 207:3 211:1 214:2 225:1 228:3 230:1 243:1 244:1 263:1 276:1 278:1 281:1 287:2 304:3 306:1 307:1 313:1 335:3 358:2 369:2 390:1 483:1 548:1 577:1 581:1 582:1 625:1 661:2 666:1 716:2 807:1 833:1 834:1 839:1 841:1 842:1 857:1 896:1 905:1 918:1 924:1 938:7 1004:1 1007:2 1008:1 1018:1 1103:1 1151:1 1158:1 1194:1 1229:1 1301:1 1325:1 1331:1 1357:1 1415:2 1556:1 1589:1 1652:1 1690:1 1741:1 1764:2 1821:1 1949:2 
-0.01595089144440643 0.03056732607309592 0.0199970257727072 0.03006039367319085 2:1 3:1 6:3 7:4 17:1 27:1 39:1 41:1 46:1 51:3 53:1 57:1 76:1 77:3 127:1 130:1 133:1 144:5 145:2 157:1 165:5 181:1 195:2 219:1 222:1 261:1 276:1 329:2 422:1 430:1 512:1 513:1 669:1 683:1 720:1 723:1 796:1 806:1 825:1 837:1 893:1 1023:1 1029:1 1077:1 1087:1 1101:1 1234:1 1266:1 1357:1 1399:1 1851:1 1941:2 
-0 0.06619134049123421 0.05195696671105884 0.0006951699662472477 0:1 3:1 4:1 8:1 9:1 13:2 24:1 26:1 32:2 44:1 56:1 63:1 77:1 81:1 119:1 131:1 145:1 167:1 169:2 170:1 173:1 212:1 266:1 267:1 292:1 299:1 306:1 361:1 456:1 525:1 534:1 629:2 819:1 1025:1 1107:1 1178:1 1657:1 
-0.04699877880015722 0.10134569590117 0.06263201733256844 0.03402969338590078 0:1 4:1 8:1 13:4 24:1 32:1 56:1 64:1 71:1 119:1 122:1 128:1 208:1 258:1 280:1 443:1 508:1 533:1 534:1 573:1 608:2 923:1 1038:1 1180:1 1204:1 
-0.1317275627248633 0.09243198164240704 0.2125699757869475 0.09061419213995618 5:1 47:1 65:1 122:1 151:1 173:1 217:1 223:1 228:1 332:1 337:1 471:2 628:1 884:1 1382:1 1946:1 
-0 0.01163353147242519 0.01332000711479523 0 0:1 1:3 6:1 17:1 18:1 29:1 33:1 36:1 51:1 56:1 57:1 59:2 67:1 71:1 107:2 116:2 148:1 172:1 227:1 246:1 286:1 316:1 434:1 479:1 587:1 620:1 681:1 838:1 890:1 891:1 898:1 1128:1 1251:1 1803:1 1839:1 1876:1 
-0.01181746471816367 0 0.03934053826288029 0.02726607938315815 3:1 6:1 11:1 12:3 19:2 39:3 48:1 49:1 51:2 58:1 65:1 74:1 83:1 95:1 104:1 111:1 145:1 159:2 180:1 187:1 195:1 219:1 332:1 361:1 461:1 497:1 726:1 758:1 940:1 1045:1 1047:1 1298:1 1425:2 1445:3 1489:2 1572:1 1739:1 
-0.03067120325673027 0.02697295847099975 0.01005910330511688 0.05061230820664142 2:2 6:1 11:1 12:2 17:1 27:1 40:1 48:1 57:1 93:1 109:2 111:1 119:1 240:1 290:1 315:1 399:1 454:1 461:1 534:1 558:2 559:1 562:1 654:1 715:1 724:1 999:1 1328:1 1425:2 1445:3 1572:1 
-0 0 0.02234980220866135 0 0:2 1:1 2:2 3:2 4:1 6:1 7:1 8:1 13:2 14:1 21:1 26:1 30:1 58:1 68:1 90:1 104:1 127:1 138:2 150:1 159:1 166:1 172:1 199:1 206:1 210:2 211:1 219:1 245:1 252:1 298:1 318:1 323:1 345:1 347:1 419:1 471:1 482:1 498:1 501:1 504:1 602:1 871:1 918:1 923:1 987:1 1021:1 1025:1 1357:1 1442:1 1530:1 1670:1 1682:1 1829:1 1851:1 1908:1 1932:1 1948:1 1988:1 
-0 0 0.007214533874009301 0.02208772347959924 2:2 3:2 8:1 12:2 13:9 16:1 24:1 25:4 29:1 32:1 33:1 36:1 40:2 42:2 46:1 50:1 56:1 63:1 64:1 74:2 78:1 89:2 95:1 109:1 115:1 117:1 119:2 126:1 133:2 154:1 156:1 159:1 174:1 177:1 181:1 191:1 193:1 195:1 210:1 219:1 223:1 231:1 239:2 240:1 246:1 265:1 269:1 275:1 278:1 292:1 298:1 301:1 304:2 314:2 326:1 354:1 384:1 422:1 426:1 453:1 472:1 477:1 509:2 572:1 587:1 644:1 662:2 760:1 788:1 797:1 798:1 811:1 831:1 907:1 943:1 978:4 1102:1 1174:1 1297:1 1311:1 1371:1 1692:1 1711:1 1840:1 
-0.02110843252451745 0.0546745072725479 0.1205756215709959 0.06410316217135373 1:1 30:1 40:1 58:1 159:1 186:1 187:1 199:1 231:1 386:1 1236:2 1819:2 
-0.014463577332409 0.02716830505650037 0.005866368008442328 0.004058258272299714 0:1 2:2 3:1 4:2 6:2 9:1 10:1 18:1 21:1 22:3 28:1 32:1 46:1 47:1 48:1 49:1 65:1 71:1 76:1 78:2 89:1 93:1 103:1 108:2 109:1 111:1 125:1 126:1 140:1 150:1 157:1 158:1 166:1 177:2 182:1 186:1 207:1 225:1 239:1 255:1 260:1 266:1 270:1 276:1 278:1 289:1 293:1 301:1 319:1 336:1 348:1 351:2 390:1 406:1 418:1 449:1 469:1 487:1 498:1 512:1 515:1 517:2 541:1 553:2 605:1 623:1 674:2 693:1 712:1 726:1 771:1 842:1 846:2 862:1 870:1 880:1 894:1 947:1 960:1 1100:1 1109:1 1148:1 1201:1 1331:1 1347:1 1376:1 1448:1 1465:1 1475:1 1484:1 1690:1 1720:2 1740:1 1912:1 1992:1 
-0.3357951063110294 0.31427642885659 0.160114636752516 0.1386458902017618 2:1 5:1 18:1 43:1 69:1 374:1 451:1 582:1 647:1 886:1 
-0.03921407792685444 0.04764179882267174 0.02119587328694753 0.02457417292426128 3:1 4:1 16:1 18:1 24:1 26:1 33:1 39:1 40:1 45:1 59:1 69:1 81:1 109:1 120:1 126:1 127:1 130:1 138:1 148:1 154:1 160:2 173:1 177:1 178:1 231:1 238:1 249:1 255:1 263:1 315:1 319:1 338:1 356:1 361:1 424:1 450:1 473:1 481:1 634:1 652:1 658:1 754:1 805:1 820:1 831:2 854:1 1065:1 1126:1 1235:1 1380:1 1736:1 
-0 0 0 0.01883114670200053 1:2 2:1 3:3 4:3 8:3 19:1 20:1 37:1 49:1 54:1 59:1 82:2 95:1 96:1 111:1 120:2 160:1 177:1 197:1 205:1 299:1 336:1 390:1 500:1 524:1 587:1 593:1 658:1 710:1 744:1 854:1 881:1 977:1 1093:1 1235:1 1449:1 1794:1 
-0.02565288530894163 0.03586801552056913 0.05083488174397813 0 0:2 1:1 3:1 7:1 12:2 14:2 32:1 43:1 50:1 54:1 62:1 94:1 115:1 120:4 147:1 154:1 175:1 204:1 222:1 231:1 235:1 255:1 258:1 268:4 287:1 288:1 290:1 300:1 318:2 356:2 359:1 360:3 380:1 394:1 424:1 432:1 463:1 466:1 529:1 548:1 554:1 574:1 578:1 579:1 709:1 741:1 831:1 854:1 862:1 1004:1 1025:1 1064:1 1071:1 1235:1 1251:1 1333:1 1360:1 1529:1 1817:1 
-0.0009215453508011123 0.007270031697277977 0.02167176006705569 0.0149976992866316 1:2 2:1 4:1 14:1 15:1 24:1 28:1 35:1 43:1 56:1 61:1 84:1 91:1 94:1 100:2 135:1 138:2 153:1 168:1 178:1 185:1 288:1 290:1 316:1 342:1 387:1 441:1 461:1 475:1 580:1 717:1 857:1 919:1 992:1 1303:2 1405:1 1448:1 1735:1 1762:2 
-0.4661477601289107 0.5996046549612177 0.6367520048100503 0.3502662639872072 6:1 57:1 358:1 429:1 
-0.1322359084816928 0.1094921566365031 0.1143330816006273 0.1286017483793341 1:1 2:1 3:1 7:1 11:1 29:2 31:1 43:1 46:1 50:1 53:1 163:1 188:1 199:1 277:1 313:1 402:1 405:1 500:1 579:1 828:1 955:1 1156:1 
-0.0005746591332744861 0.03785919496901497 0.03177339916539418 0.01718725970706466 0:1 3:1 9:1 21:1 25:1 34:1 42:1 45:1 49:1 50:1 56:1 59:1 70:1 79:1 84:1 91:2 98:1 101:1 104:1 109:1 123:1 139:1 153:1 161:1 163:2 167:1 178:1 202:1 215:1 237:1 280:1 344:1 367:1 385:2 436:1 440:1 462:1 463:1 465:1 468:1 471:1 491:1 497:1 501:1 509:1 515:1 525:1 544:1 699:2 706:1 788:1 796:1 804:1 864:1 920:1 924:1 955:2 958:1 965:2 983:1 1033:1 1054:1 1289:1 1421:1 1854:1 
-0.005279958802369681 0.04599032843412082 0.02920461545984795 0.04507597589633706 3:2 7:1 25:1 34:1 62:1 80:1 134:1 150:1 154:1 163:2 223:1 227:1 231:1 277:1 314:1 344:1 354:1 385:1 446:1 564:1 566:1 582:1 663:1 681:1 808:2 895:1 899:1 955:2 983:1 1060:1 1131:1 1245:1 1331:1 1352:1 1440:1 1607:1 1617:1 
-0.005054693819527506 0.01788794261579384 0.02547098915330407 0.03105904053305406 1:1 2:1 3:3 6:1 8:2 9:1 10:1 13:1 16:1 21:1 25:1 33:1 35:1 47:1 55:1 75:2 91:1 95:1 116:1 126:1 127:2 176:1 204:1 214:1 227:1 263:1 281:1 309:1 364:1 374:1 383:1 385:1 393:2 397:1 408:1 436:1 446:1 471:1 507:1 592:1 675:1 724:1 742:1 1009:1 1060:1 1219:1 1287:1 1421:1 1552:1 1667:1 1914:1 
-0 0.000124288104696827 0.02906621394260129 0.025343829249028 0:1 3:1 8:1 11:1 14:4 17:1 18:1 19:1 25:1 30:2 43:1 47:1 61:1 66:1 70:1 71:1 72:1 79:2 86:1 89:1 95:2 124:1 140:2 153:1 154:1 159:1 160:1 161:1 184:2 214:1 216:1 264:1 280:1 291:1 299:1 310:1 336:1 373:1 391:1 421:1 427:1 536:2 542:1 571:1 578:1 584:1 607:1 677:1 708:1 772:1 835:1 995:1 1032:1 1092:1 1144:1 1291:1 1514:1 1558:1 1835:1 1837:1 1926:1 
-0.01467200015514917 0.02013731482203075 0.07612043659833649 0 1:1 9:1 18:2 19:1 25:1 45:2 48:1 60:1 61:1 64:1 102:1 185:1 220:1 222:2 311:1 809:1 1051:1 1196:1 1665:1 
-0.009887615668363103 0 0 0 1:4 2:1 5:1 11:1 23:3 28:1 32:1 34:1 43:1 60:1 75:1 80:1 101:1 151:1 158:1 167:1 232:1 252:1 290:1 336:1 385:3 396:3 427:1 440:1 452:1 492:1 507:1 518:1 570:1 825:1 969:1 1036:1 1213:1 1329:1 1477:1 1603:2 1658:1 1735:1 1940:1 1996:1 
-0.005863034654695181 0.02613226240131137 0 0.002690004955570552 3:1 4:3 6:1 17:1 19:1 22:1 24:1 40:1 47:2 71:1 110:1 124:1 143:1 166:3 199:2 201:1 208:1 235:1 266:1 287:1 324:2 328:1 340:1 349:2 372:1 390:1 406:1 415:1 426:1 434:1 476:1 495:1 504:1 549:1 603:1 631:1 638:1 643:1 651:1 741:1 768:1 807:1 820:1 934:1 937:1 1031:1 1033:1 1055:1 1138:1 1173:1 1282:1 1311:1 1332:1 1646:3 1661:1 
-0.003720744998591661 0 0 0 3:1 4:1 6:1 7:1 11:1 18:1 22:1 29:1 32:1 47:3 64:2 69:2 71:1 91:1 96:1 108:3 151:1 190:1 193:1 203:1 222:1 223:1 245:1 267:1 269:1 276:2 296:1 305:1 309:1 324:3 340:1 402:1 424:1 446:1 483:1 504:1 538:1 549:3 575:2 586:1 701:2 736:1 802:1 818:1 905:1 1053:1 1054:4 1063:1 1087:1 1096:1 1207:1 1257:1 1296:1 1335:1 1615:1 1681:1 1725:1 1868:1 
-0.0388522591273611 0.05323732074772462 0.03407368680758309 0.02983387149600825 4:1 10:1 22:2 32:1 71:1 93:1 104:1 140:1 170:1 176:1 207:1 208:2 236:1 247:1 267:1 288:1 314:1 371:1 373:1 396:1 426:1 462:1 630:1 743:1 918:1 1006:1 1085:1 1129:1 1180:1 1196:1 1469:1 1470:1 1532:1 1629:1 1706:1 
-0 0.008942918691316451 0.04631530574106315 0 1:4 2:1 5:1 11:1 13:1 14:2 50:1 58:1 60:1 64:1 68:1 79:1 98:1 115:1 126:1 128:2 142:1 169:2 183:1 199:1 258:2 304:2 341:2 352:1 375:1 380:1 390:1 412:1 455:1 521:1 547:1 552:1 592:3 602:1 607:1 631:1 634:1 725:1 734:1 812:1 836:1 895:1 985:1 1443:1 1817:1 1837:1 
-0 0.01228826386406827 0.0410034897589109 0.02922897722668678 1:3 2:1 7:1 12:1 14:2 15:1 25:2 32:1 49:1 57:1 142:2 153:1 183:1 190:1 230:1 234:1 238:1 244:1 316:1 337:1 401:1 411:1 482:1 511:1 521:1 592:1 650:1 775:1 847:1 933:2 951:1 1321:1 1349:1 1625:2 1671:2 1903:1 1955:1 
-0.05667077191050206 0.09161103691566547 0.07675506061824712 0.01121243451760689 0:3 3:1 7:1 10:1 13:2 14:2 25:2 45:1 46:1 60:2 70:1 210:1 251:1 264:1 282:1 311:1 441:1 454:1 457:1 508:1 573:1 737:1 808:1 1118:1 1158:1 1180:1 1309:1 1428:1 
-0.04079919933838672 0.022257978256417 0.03407005334835486 0.03676126109537872 3:1 4:1 5:1 6:2 8:1 10:2 28:1 31:1 51:1 53:1 67:1 74:2 139:3 145:1 165:1 170:1 203:1 217:1 221:1 294:1 411:1 493:1 524:1 554:1 555:1 559:1 681:1 696:1 700:1 716:1 871:1 1067:1 1097:1 1227:1 1432:1 1752:1 1773:1 1798:1 1972:4 
-0.01413214742736322 0.02231122802174422 0 0.002975717959875592 4:1 6:1 16:1 17:1 22:2 47:1 48:4 60:1 64:1 74:1 108:1 143:1 150:1 164:1 177:1 179:1 187:1 216:1 219:1 227:1 234:1 274:1 348:1 364:1 386:1 399:1 439:2 481:1 575:1 596:1 605:2 634:1 662:1 789:1 791:1 854:1 922:2 1011:1 1106:1 1115:1 1206:1 1258:1 1288:1 1358:1 1368:1 1377:1 1487:1 1521:1 1546:1 1661:1 1872:1 1930:1 1989:1 1995:2 
-0 0.02928991748236391 0.01199879579405353 0.0003318857501121716 0:1 3:4 4:3 6:1 16:1 18:1 20:1 22:1 33:1 35:1 46:1 47:1 48:2 60:1 62:2 65:1 94:1 96:2 98:1 102:1 113:1 130:1 143:3 150:1 158:1 209:1 227:1 245:1 247:1 278:1 295:2 310:1 334:1 348:1 349:1 373:2 375:1 464:1 484:1 528:1 585:1 700:2 801:1 910:1 922:1 975:1 997:1 1115:2 1129:1 1368:1 1390:1 1416:1 1517:1 1641:2 1752:1 1756:2 1854:1 1872:1 1874:1 1950:1 
-0.07090159613298458 -0.01637429401056751 0.02893123578664869 0.02678696732937811 4:1 10:1 33:1 42:1 75:1 155:1 296:1 367:1 594:1 645:1 755:1 784:2 997:1 1184:1 1447:2 1669:3 
-0.1556004317236316 -0 0 0 5:1 8:1 27:1 35:1 54:1 67:1 75:2 118:1 161:1 258:1 476:1 518:1 672:1 784:2 902:1 999:1 1033:1 1188:1 1382:1 1447:1 1893:1 1946:1 
-0.03964967261556658 -0.02219504507803128 0.02439866941749996 0.0228201764576803 4:1 10:1 35:1 39:1 41:2 93:1 155:1 214:1 278:1 556:1 586:1 784:1 1009:1 1219:1 1228:1 1312:1 1447:1 1669:1 
-0.01946239673618171 -0.02091534607686771 0.05044899140200605 0.01447524960128684 3:1 4:1 9:1 16:1 36:1 65:1 66:1 67:2 86:1 112:1 127:1 145:1 174:1 208:1 214:1 249:1 291:1 306:2 315:1 372:1 389:1 441:1 505:1 515:1 532:1 533:1 594:1 613:1 674:1 752:1 756:1 759:3 1103:1 1137:1 1213:1 1482:1 1878:1 1992:1 
-0.3309565094130761 -0.1403313132397821 0.1768400272325877 0.05648687847860503 22:2 102:1 103:1 113:1 261:1 313:1 496:1 580:1 582:1 1094:1 
-0.1246489977274716 -0 0 0 0:2 1:1 2:3 5:2 16:1 20:1 23:1 26:1 33:1 38:1 49:1 60:1 85:1 100:1 119:1 195:1 307:1 467:1 754:1 801:1 1015:1 1577:1 1845:2 
-0 -0 0.001625095234972233 0 0:1 2:2 5:2 8:2 10:1 13:2 14:2 15:2 17:2 18:1 19:1 26:1 29:2 33:1 40:1 56:1 86:1 100:1 111:1 115:1 133:1 155:1 183:1 205:1 210:1 218:1 233:1 309:1 353:1 364:2 401:1 421:2 434:1 471:1 475:2 501:1 523:1 525:1 529:1 574:1 667:1 728:1 859:1 894:1 972:1 1099:1 1117:1 1165:1 1199:1 1438:1 1466:1 1895:1 
-0 -0.01512844166127004 0.006063547541007986 0 0:1 1:2 2:4 3:1 4:1 5:2 6:1 13:2 14:1 17:1 18:2 23:2 24:2 29:2 30:1 31:2 36:1 56:1 60:1 61:1 66:1 68:1 69:1 72:1 77:2 86:1 95:1 98:1 110:1 111:1 113:1 116:1 122:1 126:1 146:1 156:1 166:1 183:2 207:1 213:1 222:1 226:1 243:1 270:1 273:2 286:1 287:1 299:1 308:1 320:1 351:1 353:1 362:1 378:1 381:2 389:1 501:1 621:1 640:2 657:1 711:2 735:5 881:1 890:1 894:1 944:1 980:1 1076:1 1131:1 1190:1 1205:1 1228:1 1292:1 1303:1 1359:1 1400:4 1429:1 1477:1 1515:1 1550:1 1596:1 1642:1 1649:1 1777:1 1895:1 1940:1 
-0.04215980670908402 -0.01484170917122345 0 0.01619667514337987 0:1 2:3 4:1 6:1 10:1 14:1 17:2 19:1 21:1 31:1 43:1 60:1 64:1 65:1 68:1 75:2 90:1 131:1 151:1 161:1 181:1 186:1 241:1 283:1 294:1 303:2 306:1 307:1 314:1 367:1 368:2 414:1 447:2 449:1 504:1 505:1 509:1 616:1 644:1 757:1 892:1 1055:1 1275:1 1371:1 1626:2 1791:1 1991:2 
-0.1360787506402555 -0.0827951461836435 0.01325317997260627 0 1:2 5:1 7:1 15:1 23:2 34:1 69:1 72:1 100:1 101:1 108:1 133:1 186:1 234:1 326:1 455:1 473:2 475:1 616:1 825:1 882:1 
-0.1026159954111183 -0.07002982298738655 0.03934265752908515 0.04057761476847846 2:1 3:2 4:2 7:3 31:1 32:1 46:1 48:1 69:1 75:2 106:1 110:1 119:1 130:1 172:1 177:1 198:1 236:1 246:1 281:1 306:1 481:1 540:1 601:1 656:1 828:1 896:1 940:1 973:1 1064:1 1097:1 1152:1 1245:1 1321:1 1483:1 1757:1 1860:1 1988:1 
-0 -0 0.07468253031561105 0.04135508794399131 49:1 54:1 58:1 73:1 129:1 131:1 202:1 205:1 277:1 428:1 440:1 462:1 469:1 758:1 931:1 1192:1 1263:1 1304:1 1429:1 1936:1 1944:1 
-0.05624407135409161 -0.1402386258253505 0 0 2:1 7:1 35:1 202:2 213:1 358:1 485:1 557:1 591:1 1209:1 1916:1 
-0.09623378905073614 -0 0.0209901200867561 0.08703515583541309 3:1 7:1 24:1 45:1 54:1 202:1 233:1 347:1 453:1 557:1 591:1 676:1 841:1 1103:1 1133:1 1154:1 1298:1 
-0.004295558943470918 -0 0 0.006826710736800011 0:1 6:1 10:2 41:2 68:1 111:1 154:1 161:1 176:1 195:1 200:1 249:1 286:1 294:2 369:1 392:2 439:1 477:1 604:1 659:1 721:1 843:5 1003:1 1051:1 1173:1 1755:1 1825:1 
-0.0001282019070195098 -0 0.01552604252968682 0.002940224466263044 1:1 4:2 5:1 8:1 19:1 20:1 21:3 29:1 37:1 46:1 58:3 62:1 67:1 69:1 75:2 84:1 86:1 118:1 125:1 154:1 172:1 178:1 188:1 190:1 208:1 231:1 233:1 271:1 273:1 291:1 301:1 313:1 339:1 418:1 443:1 445:2 481:1 497:2 507:1 519:1 533:1 583:1 616:1 782:1 820:1 879:1 884:1 894:1 967:1 1050:1 1079:1 1269:1 1360:1 1487:1 1533:1 1877:3 
-0.2388603834764734 -0.1155279609831401 0.1508936020462379 0 0:1 131:1 334:1 959:1 1877:1 
-0.02362623536767633 -0.003121967302549028 0.02289039011143722 0.01923276534346351 1:1 3:1 5:1 10:2 12:3 14:2 17:3 18:1 21:1 25:1 27:1 28:2 33:3 34:1 36:1 44:1 51:1 55:1 57:1 59:1 61:1 69:1 71:1 72:1 83:1 99:1 111:1 115:1 118:1 121:1 135:1 168:1 176:1 183:1 188:1 189:1 204:1 240:2 269:2 272:1 280:1 297:1 316:1 356:2 360:3 362:3 376:1 394:1 403:2 413:1 424:1 463:3 487:1 648:2 720:1 751:1 758:1 762:1 1012:1 1051:1 1074:1 1154:1 1178:1 1227:1 1245:1 1314:2 1345:2 1489:1 1957:1 
-0.05348582223769341 -0.01498494492782377 0 0 0:1 1:1 10:1 14:1 26:1 45:1 68:1 72:1 77:1 106:1 107:1 120:2 123:1 169:1 201:1 220:1 346:1 356:2 360:1 380:1 394:2 424:1 618:1 868:1 891:1 1306:1 1339:1 1455:2 1702:1 1924:1 
-0.09545777918529801 -0.02157318217266031 0.1116175750346266 0.03849320179318379 4:1 8:2 20:1 44:1 45:1 51:1 101:1 160:1 208:1 226:1 246:1 287:1 289:1 319:1 346:1 357:1 362:1 431:1 435:1 520:1 583:1 608:1 879:1 1372:1 1508:1 
-0.298091301662554 -0.003060552189462937 0.1247893714079183 0.04845177018722314 2:1 5:1 10:1 37:1 45:1 53:1 55:1 78:1 101:1 120:2 124:1 177:1 200:1 226:1 323:1 339:1 342:1 363:1 372:1 520:1 
-0.013010224133399 -0 0.02196854272321394 0 0:2 1:2 2:2 8:1 14:1 27:1 30:2 33:1 41:1 44:1 61:2 66:2 75:1 77:1 103:1 106:1 120:1 126:3 147:1 156:1 178:1 179:1 182:1 214:1 226:2 268:1 275:1 281:1 294:1 296:2 319:1 335:1 356:1 362:1 377:1 392:1 400:1 489:1 490:2 491:1 520:3 554:1 583:1 618:1 619:1 654:1 682:1 895:1 1001:1 1065:1 1194:1 1205:1 1276:1 1333:1 1475:1 1479:1 1486:2 1612:1 1682:1 1724:1 1729:1 1885:1 
-0.1852284016594424 -0 0.08171011180391829 0 0:1 5:2 6:1 7:1 8:1 33:1 70:1 99:1 103:1 120:1 170:1 193:1 263:1 489:1 508:1 882:1 1030:1 1190:1 
-0 -0.01540457394540301 0.02079503934799615 0 0:1 1:1 3:1 5:2 9:2 10:1 12:2 14:1 20:1 24:2 25:2 28:2 30:1 34:1 54:1 59:1 61:1 78:1 84:3 91:1 116:1 120:1 123:2 124:1 128:1 143:2 164:3 166:1 178:1 183:1 188:1 190:1 205:1 224:1 237:1 264:1 274:1 275:1 287:3 300:1 328:1 339:1 350:2 357:3 485:2 488:1 520:1 603:1 662:1 710:1 741:1 777:1 780:2 817:1 919:1 931:1 1161:1 1163:1 1177:1 1182:1 1476:1 1534:2 1604:1 1642:1 1686:1 1718:1 1724:1 1894:1 
-0.1106219366178218 -0.09668329711462063 0.09749243462181091 0.02017302611838766 5:1 129:1 197:1 217:1 259:1 315:1 450:2 931:1 1229:1 1490:1 1512:1 
-0.03390077515717339 -0 0 0.06579582505677457 5:1 17:1 18:1 24:1 33:1 46:1 89:1 96:1 163:2 191:1 197:1 404:1 422:2 424:1 426:1 459:1 720:1 725:1 1504:1 1512:1 
-0.002858006650725551 -0 0.04238101119526512 0.0003482478996746422 0:1 2:1 3:2 9:1 11:1 16:1 18:1 26:1 40:2 44:1 47:1 58:4 66:3 99:1 103:1 122:1 128:1 129:1 134:1 146:1 149:1 150:2 177:1 179:1 186:1 217:1 259:1 284:1 359:1 400:1 409:1 418:1 422:3 555:1 580:1 616:1 865:1 886:2 902:1 1037:1 1093:1 1095:1 1139:2 1173:1 1208:1 1273:1 1637:1 1657:1 1670:1 1731:1 1916:1 
-0.02048896397262415 -0.03986926492318978 0.0504737898760212 0.02287616114602968 1:2 2:1 5:2 7:1 11:2 23:2 32:1 76:1 94:1 187:1 203:1 307:1 595:1 675:1 1065:1 1089:1 1142:3 1446:1 1918:1 1932:1 
-0 -0.03134838186516458 0.006221763235694054 0.009761741292172558 3:1 4:2 6:1 8:1 9:1 24:3 49:1 51:1 60:1 70:1 76:1 90:1 99:1 108:3 118:1 125:1 137:1 143:1 161:1 187:1 203:1 205:2 217:2 227:1 255:1 257:1 259:1 260:1 281:1 283:1 294:2 298:1 307:1 361:1 371:1 377:1 403:1 430:1 434:1 436:1 437:1 440:2 441:1 479:1 493:1 497:1 498:1 591:1 604:1 639:1 682:1 715:1 769:1 796:2 823:1 833:1 847:1 871:1 888:1 894:1 915:1 931:2 979:1 1001:1 1021:1 1325:1 1332:1 1430:1 1476:1 1550:1 1664:1 1703:1 1728:3 1766:1 1777:1 1795:1 1811:1 1893:1 1908:1 
-0 -0 0.01185780514499314 0 9:1 18:1 40:1 65:1 75:2 86:1 94:1 104:1 209:1 281:1 283:1 313:1 428:1 449:1 456:1 480:1 492:1 540:1 546:1 554:1 555:1 565:1 649:1 784:1 800:1 807:1 913:1 944:1 982:1 1155:1 1250:1 1284:1 1436:1 1599:1 1892:1 
-0.1838156243383309 -0.03919546273564196 0.2281223637957681 0 0:1 1:1 7:1 17:1 28:1 33:1 44:1 79:1 120:1 183:1 454:1 693:1 793:1 
-0.06205249734806879 -0 0.0007080969364513988 0 0:1 18:1 26:1 33:1 43:1 86:1 98:1 149:1 150:1 177:1 189:1 220:1 282:1 308:1 349:1 419:1 717:1 1046:1 1075:1 1083:1 1610:2 1648:2 
-0 -0 0.07097728463387702 0 0:2 4:1 5:1 8:1 9:2 18:1 62:2 67:2 227:1 294:1 305:1 1610:1 1648:2 1748:1 1977:1 
-0.04434207563905983 -0 0.04821858810475928 0 0:1 6:1 7:1 11:1 12:2 13:3 19:1 23:2 49:1 56:1 66:1 72:1 113:2 128:1 147:1 177:1 270:3 311:1 334:1 423:1 501:1 526:1 576:1 610:1 617:1 633:1 718:2 1032:1 1562:1 1647:1 1722:1 
-0 -0.008478207463716792 0.01515646133183502 0 0:1 6:1 13:2 23:1 32:1 66:1 147:1 156:1 270:2 334:1 423:1 461:1 484:1 501:1 680:1 718:2 758:1 
-0.01387307420034812 -0 0.02134452116558529 0 0:2 2:1 5:1 6:2 8:1 10:1 13:2 32:1 34:1 49:1 63:1 76:1 84:1 93:1 97:1 109:1 198:1 236:1 271:1 292:1 336:1 365:1 367:1 402:1 429:1 457:1 501:1 566:1 597:1 629:1 895:1 898:1 931:1 966:1 1041:1 1177:1 1193:1 1215:1 1230:1 1855:1 1926:1 
